-2.397876791656017303e-02
-2.234350889921188354e-02
-1.545163430273532867e-02
1.779843308031558990e-02
1.097443886101245880e-02
2.504202164709568024e-02
3.817921876907348633e-02
3.970149904489517212e-02
3.564006881788372993e-03
-5.351916886866092682e-03
9.816369041800498962e-03
3.024378046393394470e-02
-2.666450338438153267e-03
3.408008068799972534e-02
-4.005457740277051926e-04
-1.049333624541759491e-02
-2.506941370666027069e-02
-5.073308199644088745e-02
-2.476411312818527222e-02
-4.996148403733968735e-03
-7.431004196405410767e-03
6.485553458333015442e-04
8.325494854943826795e-05
-9.009772911667823792e-03
-4.519786685705184937e-02
1.951359212398529053e-02
-3.909178078174591064e-02
3.023860417306423187e-02
-2.284477651119232178e-02
2.000159025192260742e-02
2.384100295603275299e-02
2.156210504472255707e-02
-2.501439489424228668e-02
1.289342809468507767e-02
3.220182284712791443e-02
3.677517175674438477e-02
-1.994285266846418381e-03
2.258639084175229073e-03
-9.016325697302818298e-03
4.136421531438827515e-02
-4.297217354178428650e-03
-1.285426318645477295e-02
3.431047126650810242e-02
-9.281378239393234253e-03
3.621736168861389160e-02
2.493374235928058624e-02
-1.030448917299509048e-02
-2.219893224537372589e-02
-1.452090684324502945e-02
2.526603406295180321e-03
-2.217235043644905090e-02
-1.182417850941419601e-02
1.564704440534114838e-02
-3.613152727484703064e-02
-1.989774964749813080e-02
3.117880970239639282e-02
-1.563767902553081512e-02
3.668602183461189270e-02
-1.378513523377478123e-03
3.714886726811528206e-03
1.888062979560345411e-04
1.623177342116832733e-02
1.725343801081180573e-02
2.145408838987350464e-02
5.749254673719406128e-02
2.599597536027431488e-02
5.104747787117958069e-02
3.171561285853385925e-02
3.052996844053268433e-02
4.100270569324493408e-02
4.612942039966583252e-02
3.560646250844001770e-02
2.294958103448152542e-04
1.372778904624283314e-03
-4.625641740858554840e-03
3.131337836384773254e-02
-3.576530143618583679e-03
1.642281375825405121e-02
1.263535395264625549e-02
8.199849165976047516e-03
1.280734129250049591e-02
-1.181013043969869614e-02
-4.015391692519187927e-02
-9.831233881413936615e-03
5.104466155171394348e-02
8.754794485867023468e-03
3.118913993239402771e-02
2.308066934347152710e-02
-6.894776597619056702e-03
6.023260578513145447e-02
1.743916608393192291e-02
3.463990986347198486e-02
1.891023479402065277e-02
1.477246079593896866e-02
3.988775238394737244e-02
2.395198866724967957e-02
-8.061765111051499844e-04
8.463245816528797150e-03
2.162653021514415741e-02
5.082018300890922546e-02
8.703225292265415192e-03
-1.047149300575256348e-02
4.916449636220932007e-02
2.387312613427639008e-02
3.682298213243484497e-02
-1.282176841050386429e-02
-1.901662617456167936e-04
-4.525148868560791016e-02
-5.096117407083511353e-02
-1.889958605170249939e-02
-1.924406364560127258e-02
-1.754009909927845001e-02
4.176262766122817993e-02
1.450636796653270721e-02
3.247556462883949280e-02
5.468979477882385254e-02
5.760193243622779846e-02
-7.654163637198507786e-04
5.437978543341159821e-03
3.755523264408111572e-02
-9.072490967810153961e-03
8.486517705023288727e-03
-1.917714998126029968e-02
-4.054813459515571594e-02
2.080763690173625946e-02
3.577678650617599487e-02
2.656827494502067566e-02
1.853016205132007599e-02
3.738912753760814667e-03
2.482518181204795837e-02
1.954341679811477661e-02
4.185606911778450012e-02
-1.581337302923202515e-02
1.030051801353693008e-02
8.673315751366317272e-04
-2.322408556938171387e-02
-1.470459159463644028e-02
-1.852458901703357697e-02
-3.260182961821556091e-02
-4.362383484840393066e-02
-7.832895033061504364e-03
9.182437323033809662e-03
1.928933337330818176e-02
3.335589170455932617e-02
2.169458009302616119e-02
2.883648127317428589e-02
3.061978891491889954e-02
3.399787843227386475e-02
-2.501262538135051727e-02
-8.774816058576107025e-03
-4.660538956522941589e-02
-3.240749984979629517e-02
1.134460233151912689e-02
2.850437304005026817e-03
9.792960248887538910e-03
5.743008572608232498e-03
3.327930346131324768e-03
2.875006943941116333e-02
-4.745956975966691971e-03
3.584877774119377136e-02
2.892398461699485779e-02
3.824289143085479736e-02
1.708420366048812866e-02
2.390494011342525482e-02
-2.659060433506965637e-02
-9.875062853097915649e-03
1.235556416213512421e-02
-6.260468158870935440e-03
2.493775635957717896e-02
3.075646050274372101e-02
3.190840035676956177e-02
4.836010560393333435e-02
8.730777772143483162e-04
9.718172252178192139e-03
2.110172528773546219e-03
-1.241367869079113007e-02
-1.645433157682418823e-02
-1.960750110447406769e-02
7.111714221537113190e-03
2.330371737480163574e-02
-1.306052226573228836e-02
6.569174584001302719e-03
-1.449911762028932571e-02
-1.835523545742034912e-02
-6.514745298773050308e-03
-1.799910888075828552e-02
2.092589996755123138e-02
2.199735119938850403e-02
2.296201325953006744e-02
2.275266870856285095e-02
4.360297322273254395e-02
-7.243956788443028927e-04
1.053862087428569794e-02
9.864576160907745361e-03
2.102228812873363495e-02
-4.384945705533027649e-02
3.944927826523780823e-02
-1.011048536747694016e-02
-9.109170176088809967e-03
2.276997826993465424e-02
1.582402363419532776e-02
2.176547609269618988e-02
1.010309252887964249e-02
-6.024860776960849762e-03
-3.985751047730445862e-02
-3.849084302783012390e-02
-1.547029614448547363e-02
2.970102010294795036e-03
-2.724396809935569763e-02
-2.823682501912117004e-03
-5.025888234376907349e-02
-6.406881660223007202e-02
-3.190771117806434631e-02
-4.057554528117179871e-02
1.635815761983394623e-02
-8.544672280550003052e-03
-1.603030716069042683e-03
4.649704694747924805e-02
4.989458620548248291e-02
1.780527457594871521e-02
-2.156040444970130920e-02
1.377857383340597153e-02
7.396114058792591095e-03
6.959556136280298233e-03
2.256402000784873962e-02
-1.328968326561152935e-03
3.240375220775604248e-02
2.475693635642528534e-02
8.670400828123092651e-03
3.507157042622566223e-02
3.542075306177139282e-02
3.640286996960639954e-02
3.288127481937408447e-02
1.967228204011917114e-02
-3.901406750082969666e-02
-5.105764418840408325e-02
-5.677739158272743225e-02
-5.596808716654777527e-02
-6.866976618766784668e-02
-6.008190289139747620e-02
-2.626818977296352386e-02
-1.665087620494887233e-05
-2.780929207801818848e-02
-2.069787494838237762e-02
-7.602681405842304230e-03
-1.244373712688684464e-02
3.989941626787185669e-02
-5.918510723859071732e-03
2.614909596741199493e-02
-3.609075443819165230e-03
1.850273110903799534e-03
3.360502794384956360e-02
4.905367642641067505e-02
2.140526892617344856e-03
6.323888897895812988e-02
7.504469249397516251e-03
4.857169091701507568e-02
-2.537092566490173340e-02
-2.215386368334293365e-02
-2.499065175652503967e-02
-2.357541024684906006e-02
-1.981591992080211639e-02
-1.219852920621633530e-02
-5.652572214603424072e-02
-8.861321955919265747e-03
-3.416437283158302307e-02
-1.842655614018440247e-02
-4.463557526469230652e-02
-2.442934177815914154e-02
-4.536550492048263550e-02
-5.023622885346412659e-02
-3.312762454152107239e-02
-6.929245311766862869e-03
-8.425323292613029480e-03
2.054002694785594940e-02
-2.419786341488361359e-02
3.379337117075920105e-02
-4.547542426735162735e-03
-8.137929253280162811e-03
4.367406666278839111e-02
2.723096683621406555e-02
-2.439878589939326048e-04
5.567077919840812683e-02
2.619256032630801201e-03
4.100231453776359558e-02
3.671375289559364319e-02
1.458079554140567780e-02
1.391098275780677795e-02
-1.260202005505561829e-02
-8.938476443290710449e-03
8.404984138906002045e-03
-3.072719275951385498e-02
-5.540024489164352417e-03
-5.740448459982872009e-02
7.165060844272375107e-03
-6.814231630414724350e-03
-3.838958963751792908e-02
-2.443655580282211304e-02
-4.834551736712455750e-02
-4.797088354825973511e-02
1.741015352308750153e-02
-4.192843288183212280e-02
3.143152454867959023e-03
-3.165560960769653320e-02
4.523360729217529297e-02
4.876270145177841187e-02
4.386143758893013000e-03
3.606252372264862061e-02
-9.525464847683906555e-03
4.188562184572219849e-02
4.328019917011260986e-02
6.876133382320404053e-03
3.771654516458511353e-02
1.930996961891651154e-02
9.848044253885746002e-03
-1.543537154793739319e-02
2.440642565488815308e-02
-2.445744909346103668e-02
-5.602153763175010681e-02
-3.932986408472061157e-02
-6.791710853576660156e-03
-5.775887146592140198e-02
-2.109680511057376862e-02
-2.674903906881809235e-02
-1.907026395201683044e-02
-4.069966822862625122e-02
-2.001690119504928589e-02
-4.921690374612808228e-02
-2.778616175055503845e-02
2.889870479702949524e-02
2.431346848607063293e-02
1.271739229559898376e-02
-6.912907701916992664e-04
-9.141644462943077087e-03
5.732483789324760437e-02
2.555025927722454071e-02
4.490154236555099487e-02
2.306142076849937439e-02
4.062172397971153259e-02
2.598809637129306793e-02
6.858521141111850739e-03
8.884557522833347321e-03
2.605005633085966110e-03
2.358881756663322449e-02
-2.600034698843955994e-02
-2.222887054085731506e-02
-2.259636484086513519e-02
-3.045146353542804718e-02
-1.714216358959674835e-02
-2.576040104031562805e-02
-1.578806084580719471e-03
-5.034647509455680847e-02
-3.293792717158794403e-03
2.037452766671776772e-03
-4.004334565252065659e-03
2.065878361463546753e-02
3.133581485599279404e-03
3.676426038146018982e-02
1.318889204412698746e-02
-3.134122351184487343e-03
3.629327565431594849e-02
2.425092738121747971e-03
6.650833785533905029e-02
1.475550141185522079e-02
1.954315043985843658e-02
5.243183299899101257e-02
1.326637901365756989e-02
1.829397864639759064e-02
1.799019612371921539e-02
2.370662055909633636e-02
3.298325091600418091e-02
1.513465400785207748e-02
-1.596432062797248363e-03
1.636751741170883179e-02
-8.632195182144641876e-03
-1.857237890362739563e-02
1.837990246713161469e-02
2.307665906846523285e-02
-2.263909205794334412e-02
1.765849068760871887e-02
4.951536655426025391e-03
2.284478396177291870e-02
9.615208953619003296e-03
1.502427458763122559e-02
5.734432023018598557e-03
-4.537670686841011047e-02
-1.205034181475639343e-02
-4.001061432063579559e-03
-2.850434742867946625e-02
2.475913241505622864e-02
2.024842426180839539e-02
-4.671575501561164856e-03
2.918119169771671295e-02
3.715229406952857971e-02
6.957491859793663025e-05
5.727130919694900513e-02
1.674156449735164642e-02
7.542419247329235077e-03
-2.539294585585594177e-02
2.249293029308319092e-03
8.992765098810195923e-03
1.715060509741306305e-02
-4.452396556735038757e-02
1.717239059507846832e-02
-1.599776186048984528e-02
-2.162217162549495697e-02
-5.297226086258888245e-02
-4.760866239666938782e-02
-1.445496175438165665e-02
-4.226764291524887085e-02
-4.441900644451379776e-03
-1.812656596302986145e-02
-5.359439644962549210e-03
-3.387560322880744934e-02
-2.833927981555461884e-02
-2.726736851036548615e-02
1.224870979785919189e-02
-1.209660805761814117e-02
-2.194395055994391441e-03
2.797748707234859467e-02
4.919863492250442505e-02
1.070448546670377254e-03
6.065756827592849731e-02
2.446599677205085754e-02
-1.069448329508304596e-02
-2.335839346051216125e-02
-2.394657814875245094e-03
-1.126174256205558777e-02
-1.503397338092327118e-02
-2.960114739835262299e-02
1.430739648640155792e-02
8.523010648787021637e-03
-4.570537805557250977e-02
-3.539149090647697449e-02
-7.956483401358127594e-03
-2.076036855578422546e-02
-1.888070441782474518e-02
-2.274276688694953918e-02
-9.807180613279342651e-03
1.732965186238288879e-02
-2.967584505677223206e-02
-3.384550288319587708e-02
-2.064052037894725800e-02
-1.254597865045070648e-02
1.546331401914358139e-02
4.026729986071586609e-02
6.092952564358711243e-02
3.554233815521001816e-03
4.796896129846572876e-02
1.164070889353752136e-02
2.866474352777004242e-02
4.500297456979751587e-02
2.357407473027706146e-02
2.253947779536247253e-02
-8.580567315220832825e-03
-2.304948680102825165e-02
7.153780665248632431e-03
-3.982417285442352295e-02
9.894262067973613739e-03
-3.270389884710311890e-02
4.576773382723331451e-03
-2.539959177374839783e-02
8.206958882510662079e-03
-5.315996706485748291e-02
-3.228386119008064270e-02
-6.642263848334550858e-03
-4.209937527775764465e-02
-3.499518334865570068e-02
-8.447685278952121735e-03
-2.276214584708213806e-02
-3.952693659812211990e-03
-3.240034356713294983e-02
9.519642218947410583e-03
1.730774715542793274e-02
6.100511178374290466e-02
1.264976989477872849e-02
-9.242336265742778778e-03
3.805229812860488892e-02
6.202723085880279541e-02
2.960412204265594482e-02
5.530285835266113281e-02
-3.395257517695426941e-02
-3.991622105240821838e-02
-3.112794272601604462e-02
-4.381946846842765808e-02
-3.662241250276565552e-02
-2.075901627540588379e-02
-3.907456528395414352e-03
-8.929085917770862579e-03
-3.308041021227836609e-02
-8.005592972040176392e-03
-4.431693255901336670e-02
-3.360802680253982544e-02
-3.791973367333412170e-02
-3.562808781862258911e-02
-4.048932716250419617e-02
-2.422898635268211365e-02
-1.015711342915892601e-03
-3.607581183314323425e-02
-5.912830587476491928e-03
2.238800190389156342e-02
7.066768128424882889e-03
5.033019930124282837e-02
-1.259773597121238708e-02
5.582851171493530273e-02
6.485434621572494507e-02
1.254997961223125458e-02
3.617409244179725647e-02
-3.888404928147792816e-03
-1.264053303748369217e-02
-1.554593537002801895e-02
-1.137412060052156448e-02
-9.437875822186470032e-03
3.399226116016507149e-03
-1.746014505624771118e-02
-5.648109689354896545e-02
-5.216923728585243225e-02
1.289499364793300629e-02
-2.138379216194152832e-02
-1.799250021576881409e-02
-2.266143634915351868e-02
-4.270190373063087463e-02
9.514826349914073944e-03
-1.408790238201618195e-02
9.753514081239700317e-03
2.344536595046520233e-02
-3.005018085241317749e-02
-2.106154710054397583e-02
-1.017936039716005325e-02
2.087412960827350616e-02
5.256198719143867493e-02
1.363682677038013935e-03
4.081442602910101414e-04
5.000382289290428162e-02
4.057214409112930298e-02
4.030776768922805786e-02
3.140501677989959717e-02
2.094223164021968842e-02
-1.462845876812934875e-02
-5.940941348671913147e-02
-3.464321047067642212e-02
-6.967299152165651321e-03
-3.260178491473197937e-02
5.328263621777296066e-03
-7.173366378992795944e-03
-5.381606146693229675e-02
-3.559647873044013977e-02
-4.589059948921203613e-02
2.311368938535451889e-03
-8.376037701964378357e-03
-3.150707925669848919e-04
2.431185357272624969e-02
-1.008039526641368866e-02
1.304555498063564301e-02
7.808324880897998810e-03
4.258704930543899536e-02
2.098763175308704376e-02
5.193262919783592224e-02
2.000012248754501343e-02
3.011553362011909485e-02
2.418756112456321716e-02
2.006634883582592010e-02
3.000790439546108246e-02
4.038002714514732361e-02
5.061549320816993713e-02
1.337037049233913422e-02
-1.238397508859634399e-02
2.905485779047012329e-02
-3.744411095976829529e-02
-4.729962907731533051e-03
-2.749018557369709015e-02
-5.033425614237785339e-02
-2.038555685430765152e-03
-1.762519590556621552e-02
-7.349389139562845230e-03
-3.341014310717582703e-02
-3.273450210690498352e-02
-3.133929520845413208e-02
1.778069138526916504e-02
-3.748643770813941956e-02
-2.137722633779048920e-02
9.636139497160911560e-03
-1.946240663528442383e-02
3.075503371655941010e-02
5.262421071529388428e-02
-1.170897111296653748e-02
1.251248270273208618e-02
-9.683957323431968689e-03
-3.809904679656028748e-02
3.945193067193031311e-02
1.650117337703704834e-02
5.261219572275876999e-03
4.028296843171119690e-02
5.177938565611839294e-02
-1.341068185865879059e-02
1.565558090806007385e-02
2.312633674591779709e-03
-2.639942616224288940e-02
-3.219449147582054138e-02
-4.541283845901489258e-02
7.456777966581285000e-04
1.048470195382833481e-02
-2.721791155636310577e-02
-5.454980209469795227e-02
-1.801965525373816490e-03
1.322089321911334991e-02
-2.600868605077266693e-02
2.433376386761665344e-02
1.664348063059151173e-03
2.371326275169849396e-02
2.599773742258548737e-02
4.885620251297950745e-02
4.857151303440332413e-03
3.546074777841567993e-02
4.996091499924659729e-02
-2.138306014239788055e-02
-1.904613152146339417e-02
-3.166289627552032471e-02
4.146729782223701477e-02
3.192725032567977905e-02
2.719771303236484528e-02
2.251307480037212372e-02
4.094596579670906067e-02
-9.560269303619861603e-03
-9.449338540434837341e-03
2.202481962740421295e-03
-2.583552710711956024e-02
1.295637246221303940e-02
-2.766262553632259369e-02
-3.085155785083770752e-02
-1.587433926761150360e-02
6.182383745908737183e-03
-3.797126561403274536e-02
1.596712134778499603e-02
5.003651604056358337e-03
6.744265556335449219e-03
5.966343358159065247e-02
4.502620920538902283e-02
5.290165171027183533e-02
3.680012747645378113e-02
7.866143248975276947e-03
-1.697809249162673950e-02
2.184212766587734222e-02
4.836861509829759598e-03
-1.498306449502706528e-02
-3.931980952620506287e-02
-1.451672054827213287e-02
1.387790311127901077e-02
4.525512084364891052e-02
1.847975887358188629e-02
4.616383090615272522e-02
3.923760727047920227e-02
5.138863250613212585e-02
1.779269985854625702e-02
-2.116242609918117523e-02
2.058398537337779999e-02
-2.030144073069095612e-02
-2.860057912766933441e-02
-3.677402157336473465e-03
-3.207951784133911133e-02
9.464859031140804291e-03
-2.871706895530223846e-02
-9.248322458006441593e-04
2.486035414040088654e-02
3.633315861225128174e-02
4.006980452686548233e-03
4.250967130064964294e-02
3.801371157169342041e-02
3.033257089555263519e-02
2.940018475055694580e-02
-5.467582959681749344e-03
-9.905532002449035645e-03
-3.392772749066352844e-02
4.671052098274230957e-03
1.690682396292686462e-02
5.833669565618038177e-03
2.166869584470987320e-03
9.951389394700527191e-03
1.554714515805244446e-02
5.547887831926345825e-02
4.667964950203895569e-02
2.397673577070236206e-02
3.948867321014404297e-02
1.909691840410232544e-03
-2.451480925083160400e-02
-1.563835330307483673e-02
-1.625143736600875854e-02
-4.081285372376441956e-02
-3.911409527063369751e-02
-1.157992333173751831e-02
1.362509559839963913e-02
-6.358941551297903061e-03
-6.901157554239034653e-03
-9.844684973359107971e-03
1.887590438127517700e-02
8.524183183908462524e-03
1.894171931780874729e-03
-2.417638711631298065e-02
-2.878341078758239746e-02
-1.344469492323696613e-03
2.850927412509918213e-02
8.641009218990802765e-03
1.661819964647293091e-02
1.571405865252017975e-02
8.482200093567371368e-03
9.600131772458553314e-03
-8.908897638320922852e-03
-1.170354313217103481e-03
3.263923153281211853e-02
1.828405819833278656e-02
4.851967561990022659e-03
1.855506189167499542e-02
5.761919077485799789e-03
1.056266948580741882e-02
1.208075881004333496e-02
-1.231305394321680069e-02
3.240340203046798706e-02
-1.560015138238668442e-02
-1.114909071475267410e-02
2.754085324704647064e-02
2.428991906344890594e-02
9.532716125249862671e-03
-1.160843949764966965e-02
-3.403882030397653580e-03
5.661629140377044678e-03
1.156884711235761642e-02
-1.242258492857217789e-02
-2.741117030382156372e-02
2.176137454807758331e-02
1.753274165093898773e-02
-4.363926500082015991e-02
2.285289205610752106e-02
-3.321686387062072754e-02
2.895505726337432861e-02
2.903945744037628174e-02
-4.546861164271831512e-03
3.904484957456588745e-02
3.177646175026893616e-02
-1.143645308911800385e-02
3.958170488476753235e-02
2.808311209082603455e-02
3.851134702563285828e-02
3.572095185518264771e-02
8.499083109200000763e-03
2.059890516102313995e-02
4.080499708652496338e-02
1.052846782840788364e-03
-5.929932463914155960e-03
1.871253550052642822e-02
4.511930048465728760e-02
4.150184988975524902e-02
4.132214188575744629e-02
-2.321295207366347313e-03
-2.666082046926021576e-02
-3.893371298909187317e-02
-4.121863842010498047e-02
-3.069534339010715485e-02
2.907107397913932800e-02
2.488361904397606850e-03
7.063149474561214447e-03
-6.804133299738168716e-03
-2.091680467128753662e-02
7.122106850147247314e-03
2.927835285663604736e-02
-1.974709518253803253e-02
4.596488922834396362e-02
2.746113017201423645e-02
1.855663210153579712e-02
-1.142738386988639832e-02
-1.341186743229627609e-02
3.882754966616630554e-02
7.490480318665504456e-03
4.531032219529151917e-02
5.003912374377250671e-02
1.620623469352722168e-02
2.614166401326656342e-02
3.845512866973876953e-02
2.286636829376220703e-02
4.229727759957313538e-02
4.207914322614669800e-02
-3.048423863947391510e-02
6.537355948239564896e-03
-6.912101805210113525e-02
-9.914409369230270386e-03
2.795670367777347565e-02
6.242424622178077698e-02
4.706180840730667114e-02
2.140530757606029510e-02
6.376994401216506958e-02
5.107914283871650696e-02
-1.210881024599075317e-02
3.123529814183712006e-02
4.260491207242012024e-02
4.243735969066619873e-02
4.411907866597175598e-02
1.865392178297042847e-02
1.786516048014163971e-02
1.109336502850055695e-02
3.918658196926116943e-02
4.173570871353149414e-02
-3.184769011568278074e-04
9.835091419517993927e-03
3.773457184433937073e-02
2.619704790413379669e-02
2.396531589329242706e-02
1.442049629986286163e-03
2.738758549094200134e-02
2.396486513316631317e-02
7.065136730670928955e-02
6.848320364952087402e-02
6.539195775985717773e-02
5.523511394858360291e-02
5.932383611798286438e-02
1.682299375534057617e-02
6.291601061820983887e-02
4.777286376338452101e-04
1.320681907236576080e-02
1.000813767313957214e-02
4.398652166128158569e-02
2.818537317216396332e-02
-1.076944731175899506e-02
1.040890999138355255e-02
1.082689315080642700e-02
3.215112909674644470e-02
-3.065844252705574036e-02
3.909875079989433289e-02
-5.822518840432167053e-03
-2.064493857324123383e-02
-1.414411142468452454e-02
4.649267531931400299e-03
3.842781856656074524e-02
1.270789094269275665e-02
1.857708953320980072e-02
3.733338415622711182e-02
5.270408466458320618e-02
3.993570059537887573e-02
4.236888140439987183e-03
1.317343022674322128e-02
5.062399059534072876e-02
3.005932830274105072e-02
2.609913982450962067e-02
9.162038564682006836e-03
3.465304151177406311e-02
1.083351392298936844e-02
2.834402211010456085e-02
2.301972592249512672e-03
-1.532325427979230881e-02
2.877126075327396393e-02
1.996626844629645348e-03
-4.667450208216905594e-03
1.981966011226177216e-02
-1.611006818711757660e-02
-3.880318626761436462e-02
1.858257502317428589e-02
3.499706089496612549e-02
2.228708378970623016e-02
-1.637909188866615295e-02
-2.920237369835376740e-02
6.726828869432210922e-03
2.781324461102485657e-02
-4.747869024868123233e-05
4.378844425082206726e-02
4.212126135826110840e-02
-1.747357845306396484e-02
3.365736454725265503e-02
3.491497784852981567e-02
6.064716726541519165e-02
2.747853472828865051e-02
4.260156676173210144e-02
-1.589552313089370728e-02
-1.872055418789386749e-02
3.253435343503952026e-02
-2.841092459857463837e-02
-3.686695918440818787e-02
-5.133724212646484375e-02
1.132664177566766739e-02
1.639745570719242096e-02
1.350615359842777252e-02
2.395237609744071960e-02
1.532857865095138550e-02
-1.084039453417062759e-02
7.932985201478004456e-03
2.378638647496700287e-02
1.792495325207710266e-02
-1.921527832746505737e-02
-3.575559332966804504e-02
8.253441192209720612e-03
1.951364055275917053e-02
2.284829504787921906e-02
1.355710905045270920e-02
3.726220456883311272e-03
3.046838939189910889e-02
-1.374629139900207520e-02
1.316016819328069687e-02
6.430066190659999847e-03
1.333819609135389328e-02
2.120814519003033638e-03
6.727617699652910233e-03
-9.451624006032943726e-03
-4.481596127152442932e-02
-1.940824463963508606e-02
-7.013021502643823624e-03
-2.081299573183059692e-02
-1.043768879026174545e-02
4.592473153024911880e-03
6.097659934312105179e-04
1.064420398324728012e-02
3.508327901363372803e-02
4.197951406240463257e-02
4.914841055870056152e-02
2.391258440911769867e-02
3.090704418718814850e-02
4.760662093758583069e-03
-1.816874928772449493e-02
-5.322177894413471222e-03
-2.537521533668041229e-02
1.169249787926673889e-02
1.092483568936586380e-02
6.864692550152540207e-03
-1.140770502388477325e-02
-2.442562952637672424e-02
1.460107602179050446e-02
-2.557191625237464905e-02
2.638969756662845612e-02
-1.460017450153827667e-02
4.785138182342052460e-03
-3.971378784626722336e-03
-7.289091125130653381e-03
-1.026856247335672379e-02
-3.565774485468864441e-02
-8.533843792974948883e-03
2.455335855484008789e-02
4.223387222737073898e-03
4.275835677981376648e-02
-5.154771730303764343e-03
2.545292861759662628e-02
3.299871925264596939e-03
9.172177873551845551e-03
5.729952082037925720e-02
1.186074106954038143e-03
4.065258800983428955e-02
-3.494106605648994446e-02
-5.225651897490024567e-03
1.499788090586662292e-02
1.081076823174953461e-02
-1.667676842771470547e-03
1.925531192682683468e-03
-1.858704350888729095e-02
-9.421459399163722992e-03
3.151969611644744873e-02
5.961331538856029510e-03
1.002542581409215927e-02
1.247695554047822952e-02
-5.119204521179199219e-03
-3.862750530242919922e-02
7.349424529820680618e-03
-3.572646528482437134e-02
-2.212273702025413513e-02
1.191712450236082077e-02
9.029186330735683441e-03
-1.006611902266740799e-02
6.222317926585674286e-03
2.043426223099231720e-02
4.545333608984947205e-02
5.206828471273183823e-03
4.708380904048681259e-03
4.008432477712631226e-02
5.006146058440208435e-02
-7.318520918488502502e-03
1.481858640909194946e-02
-3.890114650130271912e-02
-5.554423481225967407e-02
-8.415524847805500031e-03
3.594656288623809814e-02
2.073209546506404877e-02
2.614818513393402100e-02
1.374572049826383591e-02
1.053810212761163712e-02
-1.662440039217472076e-02
1.496846508234739304e-02
1.015775604173541069e-03
1.151877455413341522e-02
-2.778122015297412872e-02
-4.162260144948959351e-02
1.938211731612682343e-02
2.269579796120524406e-03
5.768126994371414185e-02
2.034068666398525238e-02
2.257377840578556061e-02
2.632715366780757904e-02
4.049202054738998413e-02
2.487011067569255829e-02
3.642942756414413452e-02
3.608259558677673340e-02
1.301365904510021210e-02
1.913576759397983551e-02
-2.138222008943557739e-02
5.123245995491743088e-03
-4.876337945461273193e-03
-1.805688068270683289e-02
6.976562086492776871e-03
1.407684851437807083e-02
-3.550733206793665886e-03
2.272569201886653900e-02
2.040390856564044952e-02
3.429082781076431274e-02
3.471849020570516586e-03
1.548664551228284836e-02
2.605576446512714028e-05
-3.258155193179845810e-03
-2.302526868879795074e-02
-2.128243260085582733e-02
-3.774729091674089432e-03
-1.272768247872591019e-02
2.287246473133563995e-02
-3.234892385080456734e-03
3.501502424478530884e-02
4.862668365240097046e-02
2.090745791792869568e-02
-2.213644236326217651e-02
-1.406810898333787918e-02
-4.208887368440628052e-02
1.334667857736349106e-02
-1.671040803194046021e-02
6.830837577581405640e-03
-2.288262918591499329e-02
-2.721255645155906677e-02
-5.205511581152677536e-03
5.145932082086801529e-03
4.304865747690200806e-02
-1.036403793841600418e-02
-5.889293272048234940e-03
-1.499754376709461212e-03
-2.198710665106773376e-02
-2.226577512919902802e-02
-4.215199500322341919e-03
3.731515258550643921e-02
-1.509686093777418137e-02
-6.820323877036571503e-03
2.516740374267101288e-02
6.892097182571887970e-03
-1.682825572788715363e-02
2.587050758302211761e-02
3.921826928853988647e-02
9.928932413458824158e-03
1.476036384701728821e-02
-9.621015749871730804e-03
1.187732536345720291e-02
-8.458284661173820496e-03
-2.421608008444309235e-02
-5.183714907616376877e-03
1.716271601617336273e-02
-3.215483203530311584e-02
1.171563193202018738e-02
-6.872395169921219349e-05
2.461352013051509857e-02
4.023886844515800476e-02
3.807085379958152771e-02
4.706334322690963745e-02
-6.808679550886154175e-03
1.441826019436120987e-02
8.411886170506477356e-03
-3.473283350467681885e-02
-2.905266173183917999e-02
2.986006438732147217e-02
-1.167287491261959076e-02
2.992540830746293068e-03
2.628118358552455902e-02
6.794955581426620483e-03
2.467600628733634949e-02
3.335623443126678467e-02
1.906613446772098541e-02
1.869037002325057983e-02
-1.111953333020210266e-02
-1.835651695728302002e-02
-2.146054431796073914e-02
8.641240186989307404e-03
-2.233920060098171234e-02
5.519935395568609238e-03
2.206059359014034271e-02
-1.687344349920749664e-02
-2.057304978370666504e-02
-9.367926977574825287e-03
-2.047696523368358612e-02
3.448506351560354233e-03
1.805836893618106842e-02
1.702990382909774780e-02
1.844785176217556000e-02
2.919128863140940666e-03
-2.673491649329662323e-02
-4.731922969222068787e-02
-5.068282037973403931e-02
5.949592962861061096e-02
4.011475667357444763e-02
3.478969633579254150e-02
-6.713700015097856522e-03
-2.030802145600318909e-02
1.145862229168415070e-02
2.757062390446662903e-02
1.151888165622949600e-02
1.347720623016357422e-02
5.943120922893285751e-03
-2.498365938663482666e-03
2.965620253235101700e-03
-2.663736231625080109e-02
-2.026445418596267700e-02
-2.104829438030719757e-02
-4.012888669967651367e-02
2.428583241999149323e-02
-7.388636469841003418e-03
-1.774190738797187805e-02
-1.225658040493726730e-02
4.246154800057411194e-02
1.677776686847209930e-02
1.914774626493453979e-02
1.322388090193271637e-02
8.351132273674011230e-03
-2.877266146242618561e-03
-4.835258051753044128e-02
-7.037994218990206718e-04
5.009432137012481689e-02
6.232813745737075806e-02
5.731413513422012329e-02
2.210780233144760132e-02
-1.215185504406690598e-02
5.856817588210105896e-02
-2.283825015183538198e-04
3.659192100167274475e-02
6.171119585633277893e-02
5.041157826781272888e-02
2.901490963995456696e-02
-4.454357177019119263e-02
-1.427470520138740540e-02
-1.677806489169597626e-02
1.772916503250598907e-02
3.382818028330802917e-02
9.966931305825710297e-03
-7.667033001780509949e-03
-1.798009499907493591e-02
-8.873354643583297729e-03
-8.584900759160518646e-03
7.901269942522048950e-03
-1.549012400209903717e-02
3.323141485452651978e-02
-1.351762097328901291e-02
-8.364008390344679356e-04
5.343605205416679382e-02
3.440801519900560379e-04
4.377378523349761963e-02
1.053458452224731445e-02
3.199878334999084473e-02
4.672504588961601257e-02
5.043961107730865479e-02
5.687285959720611572e-02
-3.299436764791607857e-03
1.449038833379745483e-02
1.121344976127147675e-02
1.701019145548343658e-02
-7.740959990769624710e-03
-1.073965337127447128e-02
9.332136251032352448e-03
-3.770883008837699890e-02
5.362254753708839417e-02
3.925105929374694824e-02
1.489671319723129272e-02
5.547104869037866592e-03
2.298164553940296173e-02
1.374681200832128525e-02
1.560926530510187149e-02
3.605450317263603210e-02
3.921929374337196350e-02
1.967226900160312653e-02
1.324451761320233345e-03
9.541669860482215881e-03
-1.760081574320793152e-02
3.239366039633750916e-02
-2.692152559757232666e-02
-1.044638734310865402e-02
3.052930533885955811e-02
2.163277007639408112e-02
9.880288504064083099e-03
9.346462786197662354e-03
1.143956650048494339e-02
3.016010299324989319e-02
-2.307983674108982086e-02
3.987218812108039856e-02
1.572907902300357819e-02
8.914609439671039581e-03
2.251286804676055908e-02
-8.362588472664356232e-03
-1.473865378648042679e-02
-1.387695129960775375e-02
-9.908759966492652893e-03
1.110563240945339203e-02
2.792463637888431549e-04
-9.678672999143600464e-03
-2.214910089969635010e-02
4.697982221841812134e-02
2.277233265340328217e-02
1.142753846943378448e-02
9.531301446259021759e-03
-4.713467322289943695e-03
-1.123973075300455093e-02
-1.534378994256258011e-02
1.213422697037458420e-02
7.963909767568111420e-03
-1.344642601907253265e-02
-7.071432191878557205e-03
4.721098393201828003e-02
-2.798395464196801186e-03
-2.712309127673506737e-03
-1.502929814159870148e-02
6.559262983500957489e-03
-1.414805743843317032e-02
4.568988457322120667e-02
-7.265329826623201370e-03
-9.407882578670978546e-03
3.186694532632827759e-02
2.107528597116470337e-02
1.529208943247795105e-02
4.463310167193412781e-02
1.007405575364828110e-02
3.156926855444908142e-02
-2.577750198543071747e-02
-3.093828633427619934e-02
-1.344168186187744141e-02
-5.714546889066696167e-03
1.372671220451593399e-02
1.487465947866439819e-02
-9.920036420226097107e-03
3.454970195889472961e-02
-2.952108904719352722e-02
4.986446350812911987e-02
1.265601254999637604e-02
3.627529740333557129e-02
1.313490234315395355e-02
1.389925088733434677e-02
2.751487120985984802e-02
-1.773277646861970425e-03
3.242619335651397705e-02
-3.537560580298304558e-03
3.857705742120742798e-02
3.062901645898818970e-02
-1.830951683223247528e-02
-1.357047446072101593e-02
-1.110618468374013901e-02
5.873234942555427551e-02
5.503275990486145020e-02
1.345356646925210953e-02
2.379385940730571747e-02
6.068608909845352173e-02
4.793522506952285767e-02
4.034971352666616440e-03
-1.799111068248748779e-02
-1.134902425110340118e-02
-2.394421212375164032e-02
-7.106816861778497696e-03
-2.166168764233589172e-02
3.056910075247287750e-02
-2.187200449407100677e-02
8.378083817660808563e-03
1.753205806016921997e-02
-1.471903640776872635e-02
2.018591016530990601e-02
-3.046693746000528336e-03
3.878235351294279099e-03
7.256216835230588913e-03
-3.255714103579521179e-02
1.395222716382704675e-05
-1.478395890444517136e-02
-1.980459550395607948e-03
4.680206533521413803e-03
1.016458263620734215e-03
-1.594264060258865356e-02
3.589227050542831421e-02
2.225627750158309937e-02
2.345645427703857422e-02
1.005693152546882629e-02
7.824750617146492004e-03
3.709151595830917358e-02
2.694928087294101715e-02
4.005615785717964172e-02
1.400189287960529327e-02
2.721604891121387482e-03
-3.966864570975303650e-02
-2.271214872598648071e-02
2.163348533213138580e-02
1.309722848236560822e-02
-2.622405812144279480e-02
-1.425398886203765869e-02
-7.690020371228456497e-03
9.260090999305248260e-03
-3.717613220214843750e-02
-3.950798884034156799e-02
-4.454066976904869080e-02
3.003668272867798805e-03
-1.309498399496078491e-02
-9.479061700403690338e-03
-2.136900462210178375e-02
-3.056475333869457245e-02
-7.717065513134002686e-03
1.397914066910743713e-02
5.611661076545715332e-02
5.117565765976905823e-02
2.705980278551578522e-02
6.404620409011840820e-02
4.169816523790359497e-02
5.561184603720903397e-03
2.572415024042129517e-02
2.197236754000186920e-02
4.790572077035903931e-02
-5.036178627051413059e-04
1.355736888945102692e-02
6.073508411645889282e-03
-2.191170863807201385e-02
1.743234321475028992e-02
2.229670062661170959e-02
-1.756708137691020966e-02
-1.861724629998207092e-02
-4.671240597963333130e-02
-1.390347443521022797e-02
-1.890590414404869080e-02
-3.470290079712867737e-02
-5.013226345181465149e-02
-3.908587247133255005e-02
-2.480184659361839294e-02
-3.367594256997108459e-02
-3.593656420707702637e-02
5.047247186303138733e-02
4.542219452559947968e-03
3.259444236755371094e-02
6.504704803228378296e-02
3.233452886343002319e-02
-3.443366847932338715e-03
3.924021869897842407e-02
-1.622269116342067719e-02
1.936606131494045258e-02
-1.718638231977820396e-03
-6.569403223693370819e-03
4.073707759380340576e-02
1.637877337634563446e-02
8.640515734441578388e-04
-5.924885626882314682e-03
9.402466006577014923e-03
1.412174105644226074e-02
-3.509141132235527039e-02
1.089069154113531113e-02
-4.733469709753990173e-02
2.910590963438153267e-03
-4.117609933018684387e-02
-6.165933609008789062e-02
-2.083222754299640656e-02
-1.580305024981498718e-02
1.963515393435955048e-02
-1.227159518748521805e-02
-2.419093064963817596e-02
1.954468339681625366e-02
3.614673390984535217e-02
2.073538862168788910e-02
6.258185952901840210e-02
7.066066563129425049e-02
2.588618360459804535e-02
2.779863774776458740e-02
2.059906907379627228e-02
-9.670387953519821167e-03
-2.482515200972557068e-02
2.128648571670055389e-03
2.835251949727535248e-02
1.061894837766885757e-02
-2.788056991994380951e-02
-1.306467223912477493e-02
-2.771529927849769592e-02
7.074501831084489822e-03
9.724186966195702553e-04
-2.443887293338775635e-02
-5.411891266703605652e-02
-2.361604012548923492e-02
-1.567315426655113697e-03
-3.441453725099563599e-02
-4.818352311849594116e-02
-2.250727452337741852e-02
1.394020766019821167e-02
-2.763297036290168762e-02
-1.705211028456687927e-02
2.992853708565235138e-02
-9.970429353415966034e-03
6.418821960687637329e-02
2.695817872881889343e-02
6.985224783420562744e-02
3.574825078248977661e-02
3.212303295731544495e-02
3.689020872116088867e-02
-1.389223802834749222e-02
3.471745550632476807e-02
5.997220426797866821e-02
3.753833472728729248e-02
-3.735494334250688553e-03
-3.409263119101524353e-02
2.277688868343830109e-02
-4.497672244906425476e-02
6.830002181231975555e-03
-5.494723562151193619e-03
-4.500542581081390381e-02
-6.550368852913379669e-04
3.801155602559447289e-03
-3.588471934199333191e-02
-4.404278472065925598e-02
-1.820636540651321411e-02
-2.220480702817440033e-02
-1.243954431265592575e-02
-1.666794647462666035e-03
-1.073329243808984756e-03
4.182004928588867188e-02
1.048659160733222961e-02
6.356903910636901855e-02
2.810425125062465668e-03
3.114773426204919815e-03
2.844836190342903137e-02
6.805653683841228485e-04
4.550245404243469238e-02
-2.595251193270087242e-03
2.177982777357101440e-02
-4.728379659354686737e-03
-2.854687348008155823e-02
-4.205236583948135376e-02
-4.457956179976463318e-02
-1.006486173719167709e-02
-1.775536313652992249e-02
4.416361916810274124e-03
1.167391240596771240e-02
9.956638328731060028e-03
-2.247303165495395660e-02
8.118011057376861572e-03
8.790696971118450165e-03
4.992511123418807983e-03
2.101314067840576172e-02
-3.724761307239532471e-03
-3.239273652434349060e-02
-1.497359294444322586e-02
-2.074600942432880402e-02
6.062819063663482666e-02
7.297114469110965729e-03
1.964999549090862274e-02
1.417998457327485085e-03
6.643261015415191650e-02
5.418866500258445740e-02
-6.118047982454299927e-03
2.512020617723464966e-02
4.072472825646400452e-02
-1.952254772186279297e-02
1.898481324315071106e-02
1.560420077294111252e-02
2.140824915841221809e-03
-1.392761594615876675e-03
1.469381991773843765e-02
2.896033227443695068e-02
-1.887788623571395874e-02
-4.316606745123863220e-02
-5.791252478957176208e-02
-6.418767850846052170e-03
-2.292251959443092346e-02
-7.227954454720020294e-03
-2.203177846968173981e-02
2.585870958864688873e-02
3.627328900620341301e-03
-1.295273751020431519e-02
2.484779979567974806e-04
1.657312549650669098e-02
4.491136968135833740e-02
2.261170418933033943e-03
1.993648521602153778e-02
4.788068309426307678e-02
4.739744123071432114e-03
-9.717363282106816769e-04
-2.727391943335533142e-02
1.329787448048591614e-02
-2.117555588483810425e-02
3.101760055869817734e-03
5.879966076463460922e-03
-3.520735725760459900e-02
-3.099648095667362213e-02
-2.094065956771373749e-02
1.297404151409864426e-02
-1.451875455677509308e-02
1.992277801036834717e-02
-4.349341150373220444e-03
1.663409918546676636e-02
-3.756844997406005859e-02
1.015110872685909271e-02
2.066503651440143585e-02
-9.988903068006038666e-03
-7.764928508549928665e-03
-3.280059993267059326e-02
4.163801204413175583e-03
-2.747802250087261200e-02
1.650817133486270905e-02
4.121005535125732422e-02
1.425440795719623566e-02
2.483228221535682678e-02
3.575164824724197388e-02
3.636498749256134033e-02
1.954889483749866486e-02
-5.763710942119359970e-04
-1.956816203892230988e-02
-2.561125345528125763e-02
-3.946954756975173950e-02
-2.030756883323192596e-02
-2.093685045838356018e-02
-2.104794234037399292e-02
1.958689279854297638e-02
1.743574067950248718e-02
-5.019797943532466888e-03
6.021349690854549408e-03
2.457815222442150116e-03
1.895734854042530060e-02
-2.593450620770454407e-02
-1.837006397545337677e-02
-2.496234606951475143e-03
-3.098227549344301224e-03
-2.803379110991954803e-02
7.778678089380264282e-03
1.877065747976303101e-03
2.758879959583282471e-02
9.919609874486923218e-03
3.682645782828330994e-02
-9.505826048552989960e-03
1.950983703136444092e-02
2.596080303192138672e-02
2.410887973383069038e-03
8.600892499089241028e-03
-7.430236320942640305e-03
-1.556550734676420689e-03
4.928287584334611893e-03
-1.902388408780097961e-02
-3.828036040067672729e-02
5.407789256423711777e-03
1.635139249265193939e-02
-4.756974987685680389e-03
3.791750222444534302e-02
2.964402362704277039e-02
3.176854178309440613e-02
-2.861252427101135254e-02
6.081205327063798904e-03
-4.750237986445426941e-02
-2.980226650834083557e-02
-1.852602697908878326e-02
-2.640530001372098923e-03
1.264273375272750854e-02
-2.938236296176910400e-02
-2.643240988254547119e-02
2.538832649588584900e-02
1.173074450343847275e-02
3.564472310245037079e-03
1.834391988813877106e-02
-1.644015125930309296e-02
2.254260471090674400e-03
-3.875509276986122131e-02
-3.622150793671607971e-02
5.211309529840946198e-03
5.319567397236824036e-03
-1.840188540518283844e-02
2.654117904603481293e-02
1.338577829301357269e-02
-3.507712110877037048e-02
8.842222392559051514e-03
-2.200749143958091736e-02
3.681026399135589600e-02
1.758368127048015594e-02
3.995952010154724121e-02
1.751179248094558716e-02
2.371671237051486969e-02
3.138778731226921082e-03
3.685669973492622375e-02
-1.345328427851200104e-02
1.318245474249124527e-02
4.026969522237777710e-02
4.899911209940910339e-02
1.098704803735017776e-02
1.724664121866226196e-02
1.447883155196905136e-02
6.415883451700210571e-02
4.473990201950073242e-02
3.015820123255252838e-02
5.719412863254547119e-02
4.667787626385688782e-02
6.170124560594558716e-02
3.637691959738731384e-03
3.858299180865287781e-02
-2.913826890289783478e-02
2.709884569048881531e-02
-4.006135836243629456e-02
-2.798188105225563049e-02
-1.357293222099542618e-02
-2.044946514070034027e-02
-2.186446450650691986e-02
-6.429612636566162109e-03
5.411010608077049255e-02
5.945907905697822571e-02
1.491148211061954498e-02
1.399598363786935806e-02
5.382058769464492798e-02
-1.824741065502166748e-02
1.418418902903795242e-02
2.326074428856372833e-02
3.672510385513305664e-02
3.439056873321533203e-02
6.240319833159446716e-02
4.920023307204246521e-02
6.106153130531311035e-02
5.993188172578811646e-02
5.498173460364341736e-02
2.219151146709918976e-02
7.528139278292655945e-03
6.536541040986776352e-03
2.584898611530661583e-03
-1.546228304505348206e-02
-2.950135804712772369e-02
-1.327887293882668018e-03
-3.236969187855720520e-02
-3.475680202245712280e-02
3.303374629467725754e-03
-6.639841478317975998e-03
1.310256891883909702e-03
-5.000076815485954285e-02
-2.610640833154320717e-03
4.368780180811882019e-02
1.211303984746336937e-03
1.685891300439834595e-02
-1.161194592714309692e-02
4.439902305603027344e-02
1.598908565938472748e-02
3.359686955809593201e-02
6.829641014337539673e-02
6.002473458647727966e-02
4.405279457569122314e-02
2.706012502312660217e-02
1.325765345245599747e-02
3.256177529692649841e-02
4.036569595336914062e-02
2.302653528749942780e-02
9.153345017693936825e-04
5.461924523115158081e-02
-3.732535114977508783e-04
-5.244866013526916504e-03
-9.185746312141418457e-03
-4.787327721714973450e-02
-4.219049960374832153e-02
2.301378920674324036e-02
1.113823964260518551e-03
9.267240762710571289e-03
-1.565691665746271610e-03
-2.146122045814990997e-02
-3.459359332919120789e-02
-3.218489885330200195e-02
-1.566570252180099487e-02
-9.805117733776569366e-03
2.236267179250717163e-02
4.625183716416358948e-02
3.758420422673225403e-02
6.657306849956512451e-02
5.141889303922653198e-02
2.969830483198165894e-02
3.556577861309051514e-02
4.477833956480026245e-02
-4.539203364402055740e-03
-2.422448620200157166e-02
1.884932047687470913e-03
-3.925293311476707458e-02
2.535591088235378265e-02
3.080833517014980316e-02
2.535721659660339355e-02
1.519204676151275635e-02
-3.382678702473640442e-02
-3.891596803441643715e-03
-3.158856183290481567e-02
-1.709617301821708679e-02
-2.329693548381328583e-02
-8.188397623598575592e-03
-3.453498706221580505e-02
2.865168638527393341e-02
1.405292190611362457e-02
2.122595161199569702e-02
3.115186467766761780e-02
3.246411308646202087e-02
2.385486289858818054e-02
3.109274618327617645e-02
4.413399845361709595e-03
4.548428580164909363e-03
6.238088756799697876e-02
4.428252577781677246e-02
2.971291169524192810e-02
-2.493886509910225868e-03
-1.461436506360769272e-02
-3.703446313738822937e-02
-5.485728010535240173e-02
-3.595772385597229004e-02
-2.854591794312000275e-02
3.826168179512023926e-02
-1.075542438775300980e-02
1.941736415028572083e-02
8.768017403781414032e-03
6.686293054372072220e-03
-4.038390144705772400e-02
-3.212141338735818863e-03
3.092165803536772728e-03
6.223915261216461658e-04
1.246436964720487595e-02
3.686783462762832642e-02
1.798784546554088593e-02
-4.257399123162031174e-03
-9.518281556665897369e-03
3.647688776254653931e-02
1.642360910773277283e-02
2.454245463013648987e-02
2.806088700890541077e-02
6.047682370990514755e-03
2.326416410505771637e-02
-3.452031314373016357e-02
-3.573302645236253738e-03
1.436679158359766006e-03
7.493447628803551197e-04
-1.751375198364257812e-02
-2.691217139363288879e-02
-1.881729625165462494e-02
-4.862388595938682556e-02
2.165470831096172333e-02
3.315137699246406555e-02
3.462729975581169128e-02
-5.521924700587987900e-03
-1.631809398531913757e-02
4.663405008614063263e-03
-5.529441684484481812e-02
1.079405006021261215e-02
-1.402629539370536804e-02
3.238896653056144714e-02
-4.812147002667188644e-03
3.040018863976001740e-02
1.450512092560529709e-02
1.959958486258983612e-02
1.771845621988177299e-03
-3.258210606873035431e-03
-1.237830519676208496e-02
2.653484232723712921e-03
-4.242995381355285645e-02
-5.318074300885200500e-02
-4.535643383860588074e-02
-3.936938196420669556e-02
5.089802201837301254e-03
-4.154733568429946899e-02
-3.314677253365516663e-02
-7.498610764741897583e-03
2.598714549094438553e-03
1.979679614305496216e-02
3.393214568495750427e-02
-6.011662073433399200e-03
2.312307618558406830e-02
-1.870689168572425842e-02
-1.550372457131743431e-03
-3.420830145478248596e-02
-5.749762430787086487e-02
-4.693503305315971375e-02
6.511092651635408401e-03
-1.700544916093349457e-02
-2.907850034534931183e-02
-2.024830691516399384e-02
3.903331980109214783e-02
1.024704147130250931e-02
-7.042638491839170456e-03
-1.326432544738054276e-02
-3.917778283357620239e-02
1.261273492127656937e-02
-3.696110472083091736e-02
-2.464702911674976349e-02
-2.352607436478137970e-02
-5.625555664300918579e-02
-7.017358671873807907e-03
-1.037758775055408478e-02
-1.700348220765590668e-02
-4.617012664675712585e-02
3.132281592115759850e-03
-1.232181861996650696e-02
-2.073993720114231110e-02
1.659610308706760406e-02
1.754840277135372162e-02
-1.045162091031670570e-03
-8.535831235349178314e-03
-8.236742578446865082e-03
-5.132363364100456238e-02
1.668328046798706055e-02
-3.191375732421875000e-02
2.670536190271377563e-02
-2.504844963550567627e-02
1.489302609115839005e-02
-4.053020849823951721e-03
1.157988049089908600e-02
5.336088128387928009e-03
9.300764650106430054e-03
4.128501750528812408e-03
-4.424270242452621460e-02
-1.337659638375043869e-02
-1.124184764921665192e-02
-4.420197382569313049e-02
-3.319719806313514709e-02
2.344006299972534180e-02
-3.958139568567276001e-02
-2.143990481272339821e-03
-6.567404605448246002e-03
-3.808642178773880005e-02
-1.575607061386108398e-02
-5.272801499813795090e-03
4.920475929975509644e-02
1.227354165166616440e-02
4.851227626204490662e-02
-2.956274338066577911e-02
-3.745445236563682556e-02
-3.684214875102043152e-02
2.171397581696510315e-02
-3.567032143473625183e-02
-3.170164301991462708e-02
1.544864382594823837e-02
-4.090057313442230225e-02
2.268851734697818756e-02
-3.224059566855430603e-02
-5.055660754442214966e-02
-1.211584359407424927e-02
-5.488736182451248169e-02
-1.110283378511667252e-02
-7.002098485827445984e-03
-2.228272333741188049e-02
-3.401194512844085693e-02
-7.132061757147312164e-03
-3.406007215380668640e-02
-2.662443369626998901e-02
-2.103468962013721466e-02
-1.929814741015434265e-02
1.196012645959854126e-02
1.716284826397895813e-02
4.792820662260055542e-02
4.003848135471343994e-02
5.354979634284973145e-02
3.595694527029991150e-02
-5.989754945039749146e-02
-1.673464779742062092e-03
-2.696323022246360779e-02
-2.047952823340892792e-02
2.647869475185871124e-02
-3.328383713960647583e-02
-7.756941486150026321e-03
9.673900902271270752e-03
-1.474310364574193954e-02
-1.995235309004783630e-02
-3.146073222160339355e-02
-4.513826221227645874e-02
-3.592302277684211731e-02
-4.614541307091712952e-02
-4.086670931428670883e-03
-2.378431893885135651e-02
-4.485736135393381119e-03
-2.523104101419448853e-02
-3.191894292831420898e-02
3.226252272725105286e-02
-1.859907247126102448e-02
4.079093225300312042e-03
-1.452891621738672256e-02
-1.572369784116744995e-02
-1.119580212980508804e-02
4.234398528933525085e-02
-1.212879084050655365e-02
-4.419651348143815994e-03
-1.983339898288249969e-02
-7.866705767810344696e-03
2.507852204144001007e-02
-2.331544272601604462e-02
-2.247896976768970490e-02
-1.296081300824880600e-02
5.819271784275770187e-03
-3.167173266410827637e-02
-1.866833865642547607e-02
-9.365386329591274261e-03
1.158251252491027117e-04
-3.394345566630363464e-02
-2.486467361450195312e-02
-2.729803137481212616e-02
-1.094450926757417619e-04
5.804138258099555969e-03
8.012335747480392456e-03
-7.646787911653518677e-03
1.927400939166545868e-02
1.718400046229362488e-02
-9.650643914937973022e-03
2.922033146023750305e-02
1.046926435083150864e-02
-2.458497881889343262e-02
4.376761242747306824e-02
1.178758963942527771e-02
8.836531196720898151e-04
-2.469225414097309113e-02
-6.956732249818742275e-04
-3.214061632752418518e-02
3.154986351728439331e-02
-2.888244390487670898e-02
-1.538862753659486771e-02
2.540649147704243660e-04
-2.949278801679611206e-02
-5.185707286000251770e-02
-1.912351883947849274e-02
-5.581716075539588928e-03
-3.727255389094352722e-02
1.877903379499912262e-02
-4.320782423019409180e-02
1.480101980268955231e-02
1.752896048128604889e-02
-1.986859180033206940e-02
-1.754329167306423187e-02
1.693236269056797028e-02
3.216866776347160339e-02
1.852710731327533722e-02
4.264198616147041321e-02
4.723649471998214722e-02
-1.324850227683782578e-02
1.899739354848861694e-02
2.972651831805706024e-02
2.173572592437267303e-02
3.372182697057723999e-02
1.342141069471836090e-02
-2.406083978712558746e-03
-1.037325803190469742e-02
2.778823114931583405e-02
-3.786192461848258972e-02
1.370126847177743912e-02
-3.945419937372207642e-02
4.891189746558666229e-03
-8.419038727879524231e-03
-2.511750347912311554e-02
-5.160795152187347412e-02
1.298950519412755966e-02
3.737938124686479568e-03
-5.195867270231246948e-03
-4.438188672065734863e-02
-6.073585711419582367e-03
-1.424483582377433777e-02
2.840486541390419006e-02
3.846320509910583496e-02
3.924318775534629822e-02
1.000491250306367874e-02
-6.159756332635879517e-03
3.177795931696891785e-02
3.762536123394966125e-02
-4.016209393739700317e-03
5.288854613900184631e-02
4.123992100358009338e-02
4.898840934038162231e-02
4.127774387598037720e-02
4.782362654805183411e-02
1.584823243319988251e-02
3.040927462279796600e-02
2.191419154405593872e-02
-1.345258299261331558e-02
1.799713447690010071e-02
7.223460823297500610e-03
-3.738838434219360352e-02
-4.010023921728134155e-02
-2.748783119022846222e-02
4.846886731684207916e-03
-5.081401020288467407e-02
-2.395944483578205109e-02
5.758001469075679779e-03
-2.276840992271900177e-02
3.086944110691547394e-03
-1.466995291411876678e-02
1.114185899496078491e-02
-4.829816985875368118e-03
3.580551967024803162e-02
1.839310117065906525e-02
5.342551972717046738e-03
3.839048743247985840e-02
-1.581078581511974335e-02
4.674199223518371582e-02
2.432751096785068512e-02
-5.677421577274799347e-03
5.966662243008613586e-02
-2.526964992284774780e-02
-5.631135776638984680e-03
3.653428703546524048e-02
1.566695235669612885e-02
1.025348156690597534e-02
-3.132087364792823792e-02
-2.774668484926223755e-02
-1.284821145236492157e-02
-1.959592802450060844e-03
5.448980722576379776e-03
-3.637324273586273193e-02
-1.360918022692203522e-02
-1.891200803220272064e-02
-1.642287708818912506e-02
-2.531313523650169373e-02
-1.555914524942636490e-02
3.326527401804924011e-02
5.272757727652788162e-03
3.238806128501892090e-02
4.454936459660530090e-02
2.668976038694381714e-02
2.594181336462497711e-03
-1.269304100424051285e-02
-1.925506442785263062e-02
1.633078232407569885e-02
3.408393636345863342e-02
-2.244666917249560356e-03
-9.765664115548133850e-03
2.657847711816430092e-03
-1.633602194488048553e-03
2.962130866944789886e-02
-1.593400351703166962e-02
1.839268766343593597e-02
1.789145730435848236e-02
1.157623156905174255e-02
-1.980964466929435730e-02
-9.177267551422119141e-03
-2.778724534437060356e-03
-6.454424466937780380e-03
-1.932804659008979797e-02
-1.645324565470218658e-02
-8.102792315185070038e-03
-5.361814051866531372e-03
4.298530146479606628e-02
-4.900109488517045975e-03
1.436283229850232601e-03
3.486791625618934631e-03
2.177260629832744598e-02
-1.171023398637771606e-02
-1.026982441544532776e-02
-3.438366949558258057e-02
3.361205011606216431e-02
-1.427297131158411503e-03
3.776776790618896484e-02
4.605370014905929565e-02
-1.454790355637669563e-03
2.996792457997798920e-02
4.653912037611007690e-02
2.729929238557815552e-02
3.792382031679153442e-02
2.007977571338415146e-03
1.435664389282464981e-02
3.267975151538848877e-02
-5.914753302931785583e-02
-5.551022291183471680e-02
-4.301946610212326050e-02
-4.329119622707366943e-02
-3.382691415026783943e-03
-3.660156205296516418e-02
-2.365830726921558380e-02
-1.157932914793491364e-02
1.315107289701700211e-02
-2.048820815980434418e-02
3.513973578810691833e-02
2.941703237593173981e-02
4.386227205395698547e-02
5.834355950355529785e-03
-1.155588496476411819e-02
1.092797424644231796e-02
-1.590240001678466797e-02
9.408243349753320217e-04
-9.726185351610183716e-03
2.530496008694171906e-02
3.401771187782287598e-02
2.436964539811015129e-03
3.645440563559532166e-02
4.446797445416450500e-02
-1.979215256869792938e-02
2.152951434254646301e-02
-1.870807446539402008e-02
-1.863431185483932495e-02
9.190379641950130463e-03
-4.793673381209373474e-02
-4.445663467049598694e-02
-4.996406659483909607e-02
-1.138789020478725433e-02
-7.874893024563789368e-03
2.815235778689384460e-02
5.174665898084640503e-02
1.985273510217666626e-02
-7.980581372976303101e-03
-2.557744272053241730e-02
4.429215565323829651e-03
2.599069476127624512e-02
-1.875142939388751984e-02
-1.575388573110103607e-02
-2.730344794690608978e-02
-2.413256652653217316e-02
-2.993502654135227203e-02
-2.416507154703140259e-02
1.663262955844402313e-02
-6.648857146501541138e-03
3.984574601054191589e-02
2.679452672600746155e-02
2.248627878725528717e-02
-2.474257024005055428e-03
6.834350991994142532e-03
-1.307687442749738693e-02
1.866994425654411316e-02
-3.313103690743446350e-02
-4.350383952260017395e-02
-8.268970414064824581e-04
-7.353490218520164490e-03
-6.714994087815284729e-03
-5.820616148412227631e-03
-2.340209856629371643e-02
1.192254107445478439e-02
4.305946454405784607e-02
-1.262608217075467110e-03
-3.580104559659957886e-02
2.818594500422477722e-02
-1.048960164189338684e-02
3.481783345341682434e-02
3.726109396666288376e-03
-6.202447786927223206e-02
-1.352862827479839325e-02
-3.828732296824455261e-02
9.251543669961392879e-04
1.107568480074405670e-02
-1.459197793155908585e-02
1.795769855380058289e-02
-2.634986676275730133e-02
-3.048032149672508240e-02
2.091091871261596680e-02
1.088610850274562836e-02
3.262256272137165070e-03
3.544036298990249634e-02
-1.726465299725532532e-02
-3.285036236047744751e-02
-4.506273567676544189e-02
-2.130569890141487122e-02
-3.768055886030197144e-02
-1.918132416903972626e-02
-2.836152352392673492e-02
1.243532518856227398e-03
-2.130998857319355011e-02
-2.236044732853770256e-03
-4.633203148841857910e-03
3.763201460242271423e-02
-3.231701254844665527e-02
1.973889768123626709e-02
3.369663609191775322e-03
-5.181057378649711609e-02
-9.586744941771030426e-03
-5.601392127573490143e-03
-1.497203297913074493e-02
1.251994911581277847e-02
2.786213159561157227e-02
2.551173418760299683e-02
1.992552354931831360e-02
-3.971259295940399170e-02
1.115509588271379471e-02
1.744094491004943848e-02
-2.544996887445449829e-02
3.186586080119013786e-03
-4.331832379102706909e-02
1.108213141560554504e-02
-8.531845174729824066e-03
-5.727330688387155533e-03
-2.472733147442340851e-02
-3.135867184028029442e-03
3.325849026441574097e-02
-3.167372941970825195e-02
-2.992485091090202332e-02
4.933508113026618958e-03
-8.129388443194329739e-04
3.165346011519432068e-02
-3.268612548708915710e-02
-6.377025041729211807e-03
-2.071018517017364502e-02
-1.417023013345897198e-03
-1.825224980711936951e-02
2.924518473446369171e-02
-2.200059033930301666e-02
-1.481773797422647476e-02
3.078880719840526581e-02
4.009467083960771561e-03
-3.897123038768768311e-02
-9.396772831678390503e-03
2.078503370285034180e-02
4.099750518798828125e-02
6.436734925955533981e-03
3.207041323184967041e-02
-1.828750409185886383e-02
-4.683878645300865173e-02
8.745347149670124054e-03
-5.715347081422805786e-02
-3.963329270482063293e-02
2.450802177190780640e-02
-2.288387389853596687e-03
-2.286897972226142883e-02
1.848956570029258728e-03
2.681749500334262848e-02
-4.259205423295497894e-03
2.729899808764457703e-02
-2.250389195978641510e-02
-2.915424481034278870e-02
-5.010533332824707031e-02
1.272339746356010437e-02
-1.663899794220924377e-02
1.743988133966922760e-02
-1.158422883599996567e-02
2.948137745261192322e-02
-2.778585255146026611e-02
3.386324644088745117e-02
-2.488386817276477814e-02
-2.471114695072174072e-02
-2.804031781852245331e-02
4.133809730410575867e-02
-2.035422436892986298e-02
-2.509070374071598053e-02
2.051136083900928497e-02
-1.845747604966163635e-02
-2.842942811548709869e-02
-4.380580410361289978e-02
-2.565251290798187256e-02
-2.869656309485435486e-02
-3.958918619900941849e-03
4.345756489783525467e-03
-2.703385613858699799e-02
-2.407082170248031616e-02
-1.334906276315450668e-02
2.574872039258480072e-02
1.859554462134838104e-02
7.017283234745264053e-03
1.691696466878056526e-03
-4.412961378693580627e-02
6.513697095215320587e-03
-2.610987238585948944e-02
2.474230155348777771e-02
7.493598386645317078e-03
6.496053189039230347e-03
-1.046126056462526321e-02
5.169847980141639709e-02
1.057911850512027740e-02
4.721885547041893005e-03
1.258527580648660660e-02
2.068655192852020264e-02
4.021944478154182434e-02
-1.351295132189989090e-02
2.561623044312000275e-02
1.274364534765481949e-03
-2.720832265913486481e-02
-4.783009644597768784e-03
-3.098423592746257782e-02
-1.565806008875370026e-02
-2.692055515944957733e-02
3.767705289646983147e-03
-1.415893342345952988e-02
2.356475591659545898e-02
-2.149686031043529510e-02
2.820001356303691864e-02
1.436312776058912277e-02
-1.731930673122406006e-02
7.793065160512924194e-03
2.687419066205620766e-03
4.003624990582466125e-02
4.504943732172250748e-03
1.832629181444644928e-02
1.812784373760223389e-02
4.898025840520858765e-02
-7.878876291215419769e-03
2.945633418858051300e-02
-1.614789071027189493e-04
2.831940352916717529e-02
3.208395838737487793e-02
6.881991401314735413e-03
3.928151912987232208e-03
2.729427255690097809e-02
3.495984524488449097e-02
2.514217421412467957e-02
-5.385729018598794937e-04
2.588841319084167480e-02
1.804646290838718414e-02
-2.212575823068618774e-02
-8.751972345635294914e-04
-1.379474066197872162e-02
3.810833394527435303e-02
-1.572327129542827606e-02
2.179397456347942352e-02
3.412341699004173279e-02
-1.545041333884000778e-02
-1.976062357425689697e-02
-4.206066951155662537e-03
5.219581723213195801e-02
4.087438434362411499e-02
6.355763878673315048e-03
3.199496492743492126e-02
1.029839180409908295e-02
4.170379787683486938e-02
1.513998676091432571e-02
3.332000225782394409e-02
-2.168016880750656128e-02
-3.350142762064933777e-02
-1.893237046897411346e-02
-6.191199645400047302e-03
6.363407522439956665e-02
3.088171035051345825e-02
2.676904574036598206e-02
3.496300429105758667e-02
-1.022959966212511063e-02
1.207125652581453323e-02
4.640417173504829407e-02
1.720881648361682892e-02
2.059297822415828705e-02
1.979873888194561005e-02
5.196977034211158752e-02
5.993150547146797180e-02
4.564521089196205139e-02
3.604532778263092041e-02
4.380482807755470276e-02
1.681509800255298615e-02
-9.961901232600212097e-03
3.164776042103767395e-02
-9.805904701352119446e-03
-7.681426126509904861e-03
2.830456569790840149e-02
4.818113520741462708e-02
-7.620441261678934097e-03
-1.006094552576541901e-02
2.364839985966682434e-02
-2.976528927683830261e-02
-1.140489336103200912e-02
8.308639749884605408e-03
2.622322738170623779e-02
5.515988543629646301e-02
3.061147779226303101e-02
3.983756154775619507e-02
6.299985572695732117e-03
3.427543118596076965e-02
3.291969746351242065e-02
-7.418849039822816849e-03
1.700551062822341919e-02
-3.628929611295461655e-03
6.982150487601757050e-03
3.080998361110687256e-02
-1.005696947686374187e-03
2.274118363857269287e-02
1.324431854300200939e-03
-1.106273662298917770e-02
3.045785054564476013e-02
4.116696864366531372e-02
-1.244130451232194901e-02
-1.476604957133531570e-03
3.209052979946136475e-02
2.567552588880062103e-02
-2.808818034827709198e-02
1.758321002125740051e-02
-3.228930011391639709e-02
2.575985714793205261e-02
-4.605763126164674759e-03
1.075173355638980865e-02
2.906092209741473198e-03
-2.986184693872928619e-02
5.634791683405637741e-03
-2.306502684950828552e-02
-4.215556837152689695e-04
-1.562916114926338196e-02
-2.388969995081424713e-02
-9.050008840858936310e-03
1.356060802936553955e-02
-7.553160656243562698e-03
2.105409279465675354e-02
2.471349015831947327e-02
2.631583251059055328e-02
4.333424195647239685e-02
-1.027381420135498047e-02
-1.809378527104854584e-02
1.059584692120552063e-02
-3.369468078017234802e-02
-4.046272858977317810e-02
-2.912035770714282990e-02
-3.542771935462951660e-02
-1.207145955413579941e-02
-4.282290115952491760e-02
-2.239416725933551788e-02
-4.054745659232139587e-02
-2.668402716517448425e-02
4.070413298904895782e-03
1.167221926152706146e-02
-4.588633775711059570e-02
1.865695044398307800e-02
-3.037013113498687744e-02
2.399544417858123779e-02
-3.925564512610435486e-02
-2.426856197416782379e-02
-3.302388638257980347e-02
-9.805197827517986298e-03
-3.463650122284889221e-02
-4.823006223887205124e-03
-2.139629796147346497e-02
2.145042642951011658e-02
-1.912918314337730408e-02
-7.608819287270307541e-03
1.393570750951766968e-02
1.461104955524206161e-02
3.185565769672393799e-02
-1.160275004804134369e-02
1.626117341220378876e-02
1.972776278853416443e-02
-4.251099377870559692e-02
-5.143187940120697021e-02
-4.206172749400138855e-02
-3.846453875303268433e-02
-2.924440242350101471e-02
-2.360641397535800934e-02
-4.542999714612960815e-02
1.474268082529306412e-02
-4.175905138254165649e-02
-2.508014813065528870e-02
-3.651875769719481468e-03
8.286077645607292652e-04
2.981708012521266937e-02
5.295332986861467361e-03
-1.695017516613006592e-02
-1.754865050315856934e-02
3.825351223349571228e-02
3.655913472175598145e-02
2.046432346105575562e-02
-2.585179544985294342e-02
-1.955494657158851624e-02
1.170031167566776276e-02
-2.524383924901485443e-02
-2.794140018522739410e-02
2.798151783645153046e-02
3.548865765333175659e-02
2.922684419900178909e-03
-2.404004894196987152e-02
3.959749359637498856e-03
1.710740476846694946e-02
2.712903358042240143e-02
1.037351600825786591e-02
8.717144839465618134e-03
-2.292025648057460785e-02
-4.317400977015495300e-02
2.328101778402924538e-03
2.659190446138381958e-02
-5.297492723912000656e-03
-1.181422825902700424e-02
2.527351956814527512e-03
-4.836830310523509979e-03
3.290924429893493652e-02
-2.470310218632221222e-02
4.743945319205522537e-03
2.260424941778182983e-02
3.544167056679725647e-02
2.561602741479873657e-02
-4.468827042728662491e-03
-2.880084561184048653e-03
-4.396100714802742004e-02
-4.649043548852205276e-03
-3.067785687744617462e-02
4.657509922981262207e-02
3.658161684870719910e-02
-1.908552460372447968e-02
-1.324036158621311188e-02
-2.552284486591815948e-02
-3.351456671953201294e-02
1.177457347512245178e-02
1.154119335114955902e-02
-1.984441839158535004e-02
-1.653040014207363129e-02
2.098082192242145538e-02
3.654713183641433716e-02
1.671138219535350800e-02
5.369531363248825073e-02
4.341495037078857422e-02
2.518629468977451324e-02
4.321280866861343384e-02
4.016216471791267395e-02
1.232182723470032215e-03
-2.287187613546848297e-02
4.434436932206153870e-02
2.754769474267959595e-02
2.794405817985534668e-02
-1.947994157671928406e-02
8.479331620037555695e-03
-4.576976597309112549e-02
-2.456755563616752625e-02
-1.039488799870014191e-02
2.025372348725795746e-02
2.559954300522804260e-03
-6.982859922572970390e-04
-4.514676705002784729e-02
-6.084150075912475586e-02
-4.871923942118883133e-03
-1.376523636281490326e-02
3.352619335055351257e-02
4.561316687613725662e-03
1.445305254310369492e-02
2.441226504743099213e-02
1.778658665716648102e-02
3.632855415344238281e-02
4.740447923541069031e-02
1.337892096489667892e-02
1.025506388396024704e-02
2.676315791904926300e-02
-6.688181776553392410e-03
-1.053839363157749176e-02
-1.878559216856956482e-02
3.435077890753746033e-02
2.161841467022895813e-02
-1.623815158382058144e-03
1.534395036287605762e-03
1.031127758324146271e-02
-2.003917284309864044e-02
1.509693637490272522e-02
1.877845451235771179e-02
1.560335885733366013e-02
6.450451444834470749e-03
-1.858391799032688141e-02
-5.540719255805015564e-02
-6.948953866958618164e-02
-8.265690878033638000e-03
-3.724158182740211487e-02
2.345291152596473694e-02
2.215233631432056427e-02
4.697476513683795929e-03
4.068147018551826477e-02
7.139058317989110947e-03
4.470331594347953796e-02
-1.732180267572402954e-02
3.521912544965744019e-02
-1.456843595951795578e-02
-2.554048318415880203e-03
3.390635922551155090e-02
5.608872510492801666e-03
-1.818435825407505035e-02
-1.514223497360944748e-02
4.124056547880172729e-02
5.436012521386146545e-03
2.049279026687145233e-02
-1.735151000320911407e-02
-2.673859708011150360e-03
1.189223211258649826e-02
1.733984984457492828e-02
-2.354951947927474976e-02
3.105653449892997742e-02
6.546352524310350418e-03
9.432091377675533295e-03
-4.470127820968627930e-02
-1.970066875219345093e-02
-4.341585934162139893e-02
-3.718543052673339844e-02
-4.519843310117721558e-02
-2.985408902168273926e-02
2.289156056940555573e-02
-2.217505313456058502e-02
-7.627753075212240219e-03
-1.908594183623790741e-02
4.651638120412826538e-02
1.892190054059028625e-02
-2.160526998341083527e-02
-2.547532506287097931e-02
3.444172441959381104e-02
-1.753728091716766357e-02
1.973354630172252655e-02
3.576033934950828552e-02
6.949779111891984940e-03
-1.460002921521663666e-02
2.317861653864383698e-02
-3.556214040145277977e-03
3.896419703960418701e-02
2.892567403614521027e-02
5.996353924274444580e-03
2.319242432713508606e-02
-1.552861463278532028e-02
1.158887986093759537e-03
-9.892422705888748169e-03
3.341490810271352530e-05
-3.662491217255592346e-02
-2.733881212770938873e-02
-1.830887235701084137e-02
-2.809292264282703400e-02
2.051479741930961609e-02
8.795536123216152191e-03
4.660578444600105286e-02
5.000159144401550293e-02
3.847062960267066956e-02
4.308027774095535278e-02
8.964752196334302425e-04
-3.228012844920158386e-02
2.543198317289352417e-02
-1.688411086797714233e-02
-2.629390731453895569e-02
-2.658613212406635284e-02
-1.336124353110790253e-02
1.168487593531608582e-02
3.553185984492301941e-02
3.077934309840202332e-02
3.479203954339027405e-02
-1.222452614456415176e-02
3.571548685431480408e-02
1.267657428979873657e-02
1.069686282426118851e-02
1.721637882292270660e-02
-2.774354070425033569e-03
-3.062490373849868774e-02
-6.020568311214447021e-03
-1.136257033795118332e-02
1.622776687145233154e-02
-3.083157166838645935e-02
-2.133343927562236786e-02
1.249576453119516373e-02
9.209801442921161652e-03
-8.949520997703075409e-03
3.707927465438842773e-02
4.121806006878614426e-03
-3.206357359886169434e-02
3.674873337149620056e-02
3.079902939498424530e-02
-1.370767038315534592e-02
1.923531107604503632e-02
1.839701645076274872e-02
4.223905503749847412e-02
4.543424025177955627e-02
1.496124174445867538e-02
2.943601273000240326e-02
2.745999209582805634e-02
4.453536123037338257e-02
-1.823480939492583275e-03
2.547698654234409332e-02
3.026422485709190369e-02
-3.309643268585205078e-02
-6.595671176910400391e-02
-4.882182553410530090e-02
-1.829664781689643860e-02
-1.096495613455772400e-02
-8.461842313408851624e-03
1.038018707185983658e-02
-2.412323467433452606e-02
-2.160332538187503815e-02
-1.546921674162149429e-02
-1.305231265723705292e-02
3.768736124038696289e-02
-1.278836186975240707e-02
1.806370541453361511e-02
8.538034744560718536e-03
1.716693118214607239e-02
1.373553066514432430e-03
-3.736051917076110840e-02
1.893665082752704620e-02
-8.056182414293289185e-04
4.714277014136314392e-02
4.792965948581695557e-02
-1.892497204244136810e-02
3.041152097284793854e-02
-8.101604878902435303e-03
1.150622125715017319e-02
4.144959151744842529e-02
-3.006030991673469543e-02
-2.414854802191257477e-02
-5.917791277170181274e-03
-6.217011250555515289e-03
-4.733056295663118362e-03
-1.670789439231157303e-03
1.134973112493753433e-02
-3.821149840950965881e-02
1.078418362885713577e-02
3.189269220456480980e-03
1.546610798686742783e-02
-1.770291291177272797e-02
6.121241487562656403e-03
3.810973092913627625e-02
3.799825906753540039e-02
2.470384351909160614e-03
-2.240851521492004395e-02
-3.290222585201263428e-02
-3.132184734567999840e-03
-1.382697653025388718e-02
-1.879616081714630127e-02
4.907993227243423462e-02
1.857305690646171570e-02
-2.229385264217853546e-02
-1.190480962395668030e-02
3.928540647029876709e-02
3.315454814583063126e-04
7.263411302119493484e-03
1.361439097672700882e-02
2.625312423333525658e-03
-5.018379166722297668e-02
-4.401352256536483765e-02
-3.750058263540267944e-02
-2.960210666060447693e-02
-3.445632383227348328e-02
-2.398395352065563202e-02
-4.021799564361572266e-02
1.997897960245609283e-02
-1.026510912925004959e-02
1.703401841223239899e-02
2.381337108090519905e-03
-2.088632248342037201e-02
-2.066564001142978668e-02
-4.588140640407800674e-03
-3.869357286021113396e-03
-1.012511271983385086e-02
-1.699277386069297791e-02
2.907928451895713806e-02
2.151907980442047119e-02
2.597912959754467010e-02
4.311829432845115662e-02
2.773705311119556427e-02
9.546320885419845581e-03
5.628261715173721313e-03
2.538946084678173065e-02
-8.003093302249908447e-03
-9.976762346923351288e-03
-1.944495015777647495e-03
1.687267050147056580e-02
3.034294396638870239e-02
6.591208744794130325e-03
3.904922923538833857e-04
-6.306621432304382324e-02
-2.927457541227340698e-02
-6.763008981943130493e-02
-2.334022708237171173e-02
-2.334613353013992310e-02
7.835504598915576935e-03
3.431393206119537354e-02
3.139548376202583313e-02
1.691276207566261292e-02
3.085380233824253082e-02
2.812327817082405090e-02
5.066540464758872986e-02
3.971904888749122620e-02
3.721429035067558289e-02
6.043653935194015503e-02
2.527522295713424683e-02
5.385404452681541443e-02
2.964241802692413330e-02
-4.343697335571050644e-03
8.300977759063243866e-03
-7.715838495641946793e-03
-1.479784399271011353e-02
-3.059588838368654251e-03
2.023431099951267242e-02
-1.181809790432453156e-02
-8.359382860362529755e-03
2.576417662203311920e-02
-1.629794575273990631e-02
-1.701381616294384003e-02
-2.724350057542324066e-02
-6.393871735781431198e-03
-1.040642242878675461e-02
3.216255828738212585e-02
3.023248724639415741e-02
3.125716373324394226e-02
1.148940902203321457e-02
2.178562246263027191e-02
3.278365358710289001e-02
1.476944517344236374e-02
2.573515847325325012e-02
1.631406880915164948e-02
6.329251080751419067e-02
3.169867768883705139e-02
3.280029818415641785e-02
5.334047600626945496e-02
3.023182973265647888e-02
8.851679041981697083e-03
4.566213116049766541e-02
9.290114976465702057e-04
-3.463610773906111717e-03
1.192823797464370728e-02
-1.975701749324798584e-02
4.682720452547073364e-02
2.101206593215465546e-02
4.613261297345161438e-02
2.015229687094688416e-02
5.862399935722351074e-03
-5.295919626951217651e-02
-4.708765447139739990e-02
1.349100563675165176e-02
3.207738324999809265e-02
5.895345471799373627e-03
3.554990887641906738e-02
1.474500540643930435e-02
3.250302001833915710e-02
1.775346696376800537e-02
1.409409288316965103e-02
2.616705000400543213e-02
4.961921647191047668e-02
4.036978259682655334e-02
1.726298034191131592e-02
4.267984256148338318e-02
1.806042273528873920e-03
5.715735629200935364e-02
1.461175549775362015e-02
4.156213998794555664e-02
3.178365901112556458e-02
9.423562325537204742e-03
-5.840980447828769684e-03
2.848342992365360260e-02
4.169204086065292358e-02
-1.338749285787343979e-02
4.220499098300933838e-02
7.738721556961536407e-03
-2.166166435927152634e-03
5.466142203658819199e-03
-3.229965269565582275e-02
2.147790230810642242e-02
-2.436698786914348602e-02
-1.608421467244625092e-02
2.266636863350868225e-02
1.991508901119232178e-02
4.732371866703033447e-02
5.822985619306564331e-02
1.721311174333095551e-02
5.573870241641998291e-02
2.517127990722656250e-02
4.113495349884033203e-03
6.123448256403207779e-03
6.760993599891662598e-02
1.326654758304357529e-02
6.025517941452562809e-04
5.870453547686338425e-03
-6.270438898354768753e-03
4.677496105432510376e-02
-4.343003034591674805e-03
1.939863711595535278e-02
2.672477252781391144e-02
5.474259331822395325e-02
2.802673354744911194e-02
3.632830455899238586e-02
-1.389441732317209244e-02
-3.923125192523002625e-02
-1.591594703495502472e-02
1.309263287112116814e-03
3.263969719409942627e-02
-1.394848432391881943e-02
-4.658196587115526199e-03
3.435189649462699890e-02
1.868206635117530823e-02
6.118087470531463623e-02
5.454435944557189941e-02
-4.933833144605159760e-03
2.418269589543342590e-02
5.359645001590251923e-03
1.296756044030189514e-02
9.637028910219669342e-03
5.356101691722869873e-02
2.721040043979883194e-03
4.251132160425186157e-02
3.843606635928153992e-02
5.400569364428520203e-02
2.632403559982776642e-02
-1.651813834905624390e-02
2.118679136037826538e-02
3.266560658812522888e-02
5.242737755179405212e-02
5.276082828640937805e-02
3.166636079549789429e-02
3.080536983907222748e-02
2.540424466133117676e-02
1.090899761766195297e-02
-4.494920000433921814e-02
-1.902975700795650482e-02
-1.097511220723390579e-02
3.793210908770561218e-02
-1.981481350958347321e-02
-7.952346466481685638e-03
4.014737904071807861e-02
4.604706913232803345e-02
3.160057961940765381e-02
1.904302462935447693e-02
6.067529693245887756e-02
2.411741763353347778e-02
2.851378731429576874e-02
2.011847496032714844e-02
-6.608877331018447876e-03
1.337005291134119034e-02
2.140133082866668701e-02
2.472536638379096985e-02
1.340886810794472694e-03
-1.041369047015905380e-02
4.313582554459571838e-02
2.766006067395210266e-02
1.481971470639109612e-03
4.311220720410346985e-02
4.491981491446495056e-02
2.747430279850959778e-02
-9.091713465750217438e-03
-2.490279078483581543e-02
-3.580307529773563147e-04
1.304545905441045761e-02
3.397237043827772141e-03
3.486398980021476746e-02
-1.102351490408182144e-02
-2.637741900980472565e-02
5.230617523193359375e-02
8.029592223465442657e-03
2.839505486190319061e-02
3.654844313859939575e-02
4.887521266937255859e-03
2.694057859480381012e-02
3.330519795417785645e-02
2.934293821454048157e-02
3.919141599908471107e-04
-3.347785398364067078e-02
4.457328002899885178e-03
-1.053809653967618942e-02
-2.320668287575244904e-02
1.459785271435976028e-03
-9.753128513693809509e-03
5.439363047480583191e-02
2.946813218295574188e-02
5.532476305961608887e-02
-1.913936436176300049e-02
-2.422001771628856659e-02
1.870239153504371643e-02
1.009439211338758469e-02
1.010630838572978973e-02
5.203735828399658203e-02
2.433656528592109680e-02
3.586081415414810181e-02
-3.139474615454673767e-02
6.614688900299370289e-04
-2.082834951579570770e-02
2.209275215864181519e-02
3.186989948153495789e-02
1.850101910531520844e-02
1.756712794303894043e-02
1.626416295766830444e-02
-2.962356992065906525e-02
1.654466614127159119e-02
7.769147399812936783e-03
-4.100358486175537109e-02
2.028687112033367157e-02
3.454996645450592041e-02
1.706651598215103149e-02
-2.057753875851631165e-02
-2.145512588322162628e-02
2.356350421905517578e-03
2.641647309064865112e-02
-3.683807700872421265e-02
-2.618774585425853729e-02
-3.168446570634841919e-02
2.090558223426342010e-02
-2.058824896812438965e-02
2.136252296622842550e-04
3.189075365662574768e-02
-1.590836048126220703e-02
2.414239570498466492e-02
-2.844196511432528496e-03
2.216765284538269043e-02
2.664387598633766174e-02
4.238729830831289291e-03
1.484798453748226166e-02
-2.092850767076015472e-02
-1.514981593936681747e-02
1.818327419459819794e-02
1.369457691907882690e-02
-1.213867589831352234e-02
1.331765577197074890e-02
9.407966397702693939e-03
-4.270441830158233643e-02
-1.180206611752510071e-02
4.252946004271507263e-02
-1.090974826365709305e-02
2.850899472832679749e-02
5.618446040898561478e-03
-4.031364619731903076e-02
-2.077982528135180473e-03
1.404056139290332794e-02
2.285425923764705658e-02
-7.071026600897312164e-03
-2.829705365002155304e-02
5.053365021012723446e-04
5.386761203408241272e-02
-1.165960077196359634e-02
3.517339006066322327e-02
-6.390982307493686676e-03
-4.207371734082698822e-03
-1.757027395069599152e-02
-8.856343105435371399e-03
-4.227384459227323532e-03
-2.733311615884304047e-02
-1.330386730842292309e-04
-3.080494643654674292e-04
4.001569468528032303e-03
-5.866171792149543762e-03
-4.130503162741661072e-02
-1.307443901896476746e-02
2.621809544507414103e-04
-2.891905792057514191e-02
4.418450221419334412e-02
1.511107385158538818e-02
3.305632621049880981e-02
5.122562288306653500e-04
-4.566848650574684143e-02
6.666183006018400192e-03
-1.728811673820018768e-02
-1.119225006550550461e-02
-1.916488818824291229e-02
2.625535987317562103e-02
-9.939183946698904037e-04
5.089970678091049194e-02
5.380309745669364929e-02
2.478273771703243256e-02
-1.542847044765949249e-02
2.335037849843502045e-02
1.884866622276604176e-03
3.600274026393890381e-02
3.296522051095962524e-02
-1.458022929728031158e-02
5.732422694563865662e-03
1.846623420715332031e-02
-4.432550817728042603e-02
7.799608632922172546e-03
-9.951817803084850311e-03
9.797888807952404022e-03
7.745325099676847458e-03
1.940092071890830994e-02
-1.718856953084468842e-02
1.925463043153285980e-02
-1.392142195254564285e-02
-2.328974939882755280e-02
-3.312633559107780457e-02
3.984795766882598400e-04
-1.977505907416343689e-02
3.559795394539833069e-02
3.371695801615715027e-02
3.174984082579612732e-02
-2.053161151707172394e-02
5.390063597587868571e-05
3.141808882355690002e-02
4.229322075843811035e-02
2.729873359203338623e-02
-1.929829642176628113e-02
-2.407459542155265808e-02
2.424792619422078133e-03
1.422890741378068924e-02
-1.817056722939014435e-02
1.274430193006992340e-02
2.153599075973033905e-02
-3.468760987743735313e-03
-3.907873108983039856e-02
-1.722057536244392395e-02
-4.565615672618150711e-03
-2.530484087765216827e-02
-2.818832546472549438e-02
5.124986171722412109e-03
-1.708205416798591614e-02
2.934962324798107147e-02
4.695197567343711853e-03
-2.102332003414630890e-02
1.857402175664901733e-02
-8.998908102512359619e-03
6.905224290676414967e-04
3.576656430959701538e-02
1.910030283033847809e-02
-9.696017019450664520e-03
5.629343912005424500e-02
1.371541619300842285e-02
3.979235142469406128e-02
4.034045338630676270e-02
2.460197731852531433e-02
1.863887067884206772e-03
-1.198858395218849182e-02
-2.559359744191169739e-02
1.653742417693138123e-02
-9.206455200910568237e-03
1.677009463310241699e-02
1.645775139331817627e-02
2.982644550502300262e-02
1.253943983465433121e-02
-2.849221043288707733e-02
1.941102370619773865e-02
-8.032455109059810638e-03
2.806658297777175903e-02
2.562392689287662506e-02
4.034484922885894775e-02
3.444345667958259583e-02
3.650276735424995422e-02
7.013606373220682144e-03
2.083733677864074707e-02
-1.172793749719858170e-02
-1.628693193197250366e-02
4.641611501574516296e-02
3.356489911675453186e-02
2.933972515165805817e-02
4.029442369937896729e-02
1.480318512767553329e-02
-3.229873487725853920e-03
3.488777950406074524e-02
3.537273034453392029e-02
2.211215905845165253e-02
-7.577423937618732452e-03
-1.837912946939468384e-02
-6.371746771037578583e-03
-2.585782296955585480e-02
4.203206673264503479e-02
-8.276781067252159119e-03
4.131863266229629517e-02
3.905890882015228271e-02
5.288772657513618469e-02
-1.457786746323108673e-02
-9.418504312634468079e-03
1.064984034746885300e-02
2.650251053273677826e-02
1.494184602051973343e-03
-1.406925916671752930e-02
-4.112442256882786751e-04
2.207464911043643951e-02
4.173469170928001404e-02
3.074245713651180267e-02
-1.116261724382638931e-02
4.396091401576995850e-02
8.224633522331714630e-03
3.486555442214012146e-02
3.153186663985252380e-02
4.225151985883712769e-02
3.225080668926239014e-02
2.617654763162136078e-02
-5.910020787268877029e-03
4.270662739872932434e-02
7.588787470012903214e-03
1.472123805433511734e-02
3.339397534728050232e-02
-1.101033017039299011e-02
-2.445932663977146149e-02
4.196526482701301575e-03
3.091717138886451721e-02
-8.114450793073046952e-06
5.022499337792396545e-02
-8.505713194608688354e-03
2.660053782165050507e-02
-1.692315004765987396e-02
1.973938383162021637e-02
3.395320102572441101e-02
-2.124175801873207092e-02
1.102333981543779373e-02
3.300627693533897400e-02
2.028210833668708801e-02
4.137447103857994080e-02
3.848775848746299744e-02
-5.296747013926506042e-02
-4.670888185501098633e-02
-4.186523705720901489e-02
-3.626001998782157898e-02
-4.722853004932403564e-02
-5.541064962744712830e-02
-4.392080008983612061e-02
-2.555540204048156738e-02
-1.509802509099245071e-02
1.154432306066155434e-03
2.399308141320943832e-03
-4.115439206361770630e-02
-3.243280947208404541e-02
-5.378971993923187256e-02
-2.890657167881727219e-03
-4.085681587457656860e-02
-3.165606036782264709e-02
-4.353194311261177063e-02
1.460201758891344070e-02
3.268608450889587402e-02
-1.094139367341995239e-02
-1.836402155458927155e-02
8.719622157514095306e-03
3.190642595291137695e-02
4.533840343356132507e-02
6.942619569599628448e-03
3.134183213114738464e-02
5.576260015368461609e-02
-4.931876808404922485e-02
-1.280856877565383911e-02
-2.651162818074226379e-02
-2.620148938149213791e-03
-2.448001317679882050e-02
-5.131370201706886292e-02
-1.968442462384700775e-02
1.073304563760757446e-02
-4.820047691464424133e-02
-2.966536581516265869e-02
6.652449723333120346e-03
-2.171946689486503601e-02
-1.956515572965145111e-02
-5.881087854504585266e-02
-2.584024332463741302e-02
-2.611938305199146271e-02
-2.518990822136402130e-02
-1.516899652779102325e-02
-5.067018326371908188e-03
4.571010917425155640e-02
1.383291208185255527e-03
2.265224978327751160e-02
8.371527306735515594e-03
1.933167688548564911e-02
1.993783563375473022e-02
3.100183047354221344e-02
5.524687841534614563e-02
4.940302297472953796e-02
-4.809677600860595703e-03
6.771703250706195831e-03
1.018083840608596802e-02
8.242543786764144897e-03
-4.873311147093772888e-02
-1.589151471853256226e-02
1.561643742024898529e-02
-2.471109852194786072e-02
-2.398621849715709686e-02
-3.446675837039947510e-02
-4.078576341271400452e-02
-5.752646364271640778e-03
-4.225080832839012146e-02
-1.719029247760772705e-02
-5.445582419633865356e-02
-2.036830782890319824e-02
6.366564892232418060e-03
2.141270972788333893e-02
2.087173797190189362e-02
3.216078737750649452e-03
1.927576959133148193e-02
4.982101172208786011e-02
6.135029345750808716e-02
8.582108654081821442e-03
1.097032893449068069e-02
-1.822171732783317566e-02
1.714589074254035950e-02
4.721090197563171387e-02
-2.586949616670608521e-02
-5.081111937761306763e-02
4.403479862958192825e-03
1.619203761219978333e-02
1.429868768900632858e-02
-1.769600622355937958e-02
1.213941164314746857e-02
-4.250439256429672241e-02
-2.075483277440071106e-02
1.310467720031738281e-02
-2.991670928895473480e-02
-1.429906580597162247e-02
3.101018443703651428e-02
1.239594910293817520e-02
-6.956217112019658089e-04
2.946585789322853088e-02
-2.754101995378732681e-03
-3.238772042095661163e-03
-3.676236607134342194e-03
3.110081888735294342e-03
6.397655699402093887e-03
5.879995971918106079e-02
5.613575130701065063e-02
6.617391854524612427e-02
-5.720133427530527115e-03
-7.564919535070657730e-03
2.450014092028141022e-02
4.041399061679840088e-02
1.248319447040557861e-02
1.545025408267974854e-02
-4.528407007455825806e-02
-3.741354122757911682e-02
-2.111254446208477020e-02
-2.193431369960308075e-02
-4.927224665880203247e-02
-1.537067256867885590e-02
-2.689536660909652710e-02
4.082757234573364258e-02
3.276330977678298950e-02
3.464690223336219788e-02
-1.777571812272071838e-02
2.405275590717792511e-02
2.448500506579875946e-02
-1.581929437816143036e-02
2.561310771852731705e-03
2.767205238342285156e-02
4.393997043371200562e-02
-8.966552093625068665e-03
5.831629037857055664e-02
-1.103518437594175339e-02
1.370847504585981369e-02
1.466664392501115799e-02
4.669129103422164917e-02
-2.234263718128204346e-02
2.859645150601863861e-02
-1.007202547043561935e-02
-4.452463611960411072e-02
-5.505321547389030457e-02
-3.949369862675666809e-02
-2.393331937491893768e-02
-5.116118863224983215e-02
1.870643720030784607e-02
1.399970985949039459e-02
1.109985169023275375e-02
3.145256638526916504e-02
3.698870167136192322e-02
1.548116281628608704e-02
1.639215275645256042e-02
1.936685293912887573e-02
1.757680438458919525e-02
4.391587153077125549e-02
4.277747124433517456e-02
-1.635147142224013805e-03
9.295957162976264954e-03
7.300617173314094543e-03
3.662329912185668945e-02
3.748027235269546509e-02
4.482787847518920898e-02
3.058850206434726715e-02
1.026564626954495907e-03
9.545703418552875519e-03
2.080887369811534882e-02
2.914801053702831268e-02
-3.124704398214817047e-02
1.569953002035617828e-02
-4.126325994729995728e-02
-5.305193737149238586e-02
-2.318063750863075256e-02
1.064373180270195007e-02
7.591782603412866592e-03
5.714922025799751282e-02
2.620837092399597168e-02
-8.046127855777740479e-03
1.771355979144573212e-03
1.490161754190921783e-03
4.586434923112392426e-03
4.149593785405158997e-02
2.077141776680946350e-02
1.160885766148567200e-02
5.038638040423393250e-02
4.168679192662239075e-02
3.226230293512344360e-02
4.431866481900215149e-02
-7.599846925586462021e-03
5.414624139666557312e-02
1.282026525586843491e-02
2.437938190996646881e-02
-7.080388721078634262e-03
2.131131105124950409e-02
1.150158513337373734e-02
3.322728350758552551e-02
-1.296137459576129913e-02
-2.924333512783050537e-02
-2.791733713820576668e-03
-3.767144680023193359e-02
-4.261514171957969666e-02
2.216818742454051971e-02
-3.179281949996948242e-03
2.508863992989063263e-02
1.253337506204843521e-02
4.585284739732742310e-02
6.441932916641235352e-02
3.177180886268615723e-02
7.877066731452941895e-03
-1.141497399657964706e-02
2.480305917561054230e-02
1.910187653265893459e-03
1.342610642313957214e-02
4.704619571566581726e-02
1.273495983332395554e-02
-7.876516319811344147e-03
4.303031787276268005e-02
3.496838361024856567e-02
-9.715140797197818756e-03
3.005607239902019501e-02
2.581297978758811951e-02
-1.603840291500091553e-02
1.006173994392156601e-02
-2.755442261695861816e-02
2.900208719074726105e-02
1.169748604297637939e-02
-9.509927593171596527e-03
-4.576314613223075867e-02
-1.016255584545433521e-03
-1.064271759241819382e-02
5.805343971587717533e-04
-6.570785306394100189e-03
4.725777730345726013e-02
7.940192706882953644e-03
4.017685726284980774e-02
4.676262661814689636e-02
1.860200613737106323e-02
2.430660184472799301e-03
2.196981385350227356e-02
3.935264423489570618e-02
3.880407661199569702e-02
1.299094874411821365e-02
4.307419806718826294e-02
-3.782503190450370312e-04
-3.191011771559715271e-02
-2.705980557948350906e-03
6.410812493413686752e-03
2.027464471757411957e-02
2.543573454022407532e-02
-1.979556120932102203e-02
-7.879164069890975952e-03
-1.239811070263385773e-02
-2.085977420210838318e-02
-2.633074298501014709e-02
1.343650836497545242e-02
-3.219001367688179016e-02
7.980221882462501526e-03
9.033276699483394623e-03
-8.982859551906585693e-03
2.068851143121719360e-02
4.515788052231073380e-03
6.681978702545166016e-02
2.109278552234172821e-02
3.587028384208679199e-02
-1.890191808342933655e-02
-8.373508229851722717e-03
-5.333759356290102005e-03
3.414598992094397545e-03
8.796983398497104645e-03
-2.020923607051372528e-02
-5.773792043328285217e-03
-2.474686130881309509e-02
1.039519347250461578e-02
1.968027278780937195e-02
5.526009947061538696e-02
4.376022890210151672e-02
-1.175107806921005249e-02
-8.954544551670551300e-03
-8.653464727103710175e-03
3.945136815309524536e-02
1.578824967145919800e-02
2.666431711986660957e-03
-3.078299760818481445e-02
-2.206227183341979980e-02
-1.529081840999424458e-03
5.620765313506126404e-02
1.171797141432762146e-02
3.863469138741493225e-02
2.396609261631965637e-02
6.823317706584930420e-02
2.968602068722248077e-02
3.920565359294414520e-03
-6.682617124170064926e-03
3.445914760231971741e-02
3.373964503407478333e-02
-1.717363297939300537e-02
8.527494966983795166e-03
1.598048838786780834e-03
4.442776087671518326e-03
-3.372618183493614197e-02
-1.529951766133308411e-02
3.949517384171485901e-02
2.612520940601825714e-02
2.359159477055072784e-02
9.491778910160064697e-03
4.537966568022966385e-03
4.831854999065399170e-02
-1.648189872503280640e-02
3.162517026066780090e-02
4.985293745994567871e-02
3.545392304658889771e-02
2.142215333878993988e-02
3.801741451025009155e-02
1.580600999295711517e-02
4.473292268812656403e-03
1.987588778138160706e-02
6.393945217132568359e-02
1.258573774248361588e-02
1.536951027810573578e-02
-1.982515677809715271e-02
3.376708552241325378e-02
-4.256426764186471701e-04
-3.716561710461974144e-03
-5.959212430752813816e-04
2.033822052180767059e-02
-1.138584036380052567e-02
3.981839865446090698e-03
-1.926880329847335815e-02
3.839550167322158813e-02
2.307794988155364990e-02
2.164867147803306580e-02
2.749048359692096710e-02
3.912226483225822449e-02
2.524758223444223404e-03
3.371933475136756897e-02
1.839989796280860901e-02
2.638551592826843262e-02
1.002964470535516739e-02
5.796466954052448273e-03
1.422115322202444077e-02
-1.681707054376602173e-02
4.966327548027038574e-02
1.051663234829902649e-02
8.440208621323108673e-03
4.102302715182304382e-02
5.454336851835250854e-02
2.628534100949764252e-02
8.063450455665588379e-03
-2.239862689748406410e-03
-1.339741609990596771e-02
-3.440924454480409622e-03
-5.556241609156131744e-03
2.561169862747192383e-02
-5.998180247843265533e-03
1.301332376897335052e-02
-9.538002312183380127e-03
1.148894708603620529e-02
2.068595588207244873e-02
-6.143690086901187897e-03
-3.394726291298866272e-02
1.875253021717071533e-02
-7.765862159430980682e-03
4.490669816732406616e-02
-2.187202498316764832e-02
2.587484940886497498e-02
2.899266406893730164e-02
2.048811316490173340e-02
3.759150207042694092e-02
5.230001360177993774e-02
-5.594095680862665176e-03
5.394783988595008850e-02
5.429440364241600037e-02
5.355873703956604004e-02
-1.463801506906747818e-02
-2.433125860989093781e-02
-2.526520937681198120e-02
-2.481242083013057709e-02
1.404237188398838043e-02
-1.608098484575748444e-02
4.610845819115638733e-02
-1.709061488509178162e-02
1.933807693421840668e-02
2.509447932243347168e-02
3.080537356436252594e-02
7.553023169748485088e-04
1.695952564477920532e-02
-3.198146075010299683e-02
-2.144377678632736206e-02
-3.500747680664062500e-02
-2.310886047780513763e-04
2.619133517146110535e-02
1.895663700997829437e-02
2.778713405132293701e-02
8.190212771296501160e-03
3.958853892982006073e-03
1.696031354367733002e-02
1.624698005616664886e-02
1.509455498307943344e-02
-4.233807325363159180e-03
-2.235953928902745247e-03
-2.688497304916381836e-03
-1.658917777240276337e-02
1.154807675629854202e-02
-3.762946277856826782e-02
6.058143917471170425e-03
-3.933692350983619690e-02
1.805504411458969116e-02
3.140127658843994141e-02
3.606410697102546692e-02
-7.902727462351322174e-03
1.744215749204158783e-02
-3.122103214263916016e-02
-2.523937635123729706e-02
-8.696704171597957611e-03
2.158126793801784515e-02
3.129859641194343567e-02
-3.094516322016716003e-02
1.318473834544420242e-02
2.877301070839166641e-03
-2.348444797098636627e-02
-3.236685646697878838e-03
5.064875632524490356e-02
1.659141480922698975e-02
2.390865236520767212e-03
5.722947046160697937e-02
8.900992572307586670e-03
2.052641101181507111e-02
-9.800600819289684296e-03
-1.227730512619018555e-02
-1.350431796163320541e-02
1.494322251528501511e-02
-2.983659319579601288e-02
-1.581898145377635956e-02
-2.402435615658760071e-02
-3.362392634153366089e-02
2.790155634284019470e-02
-1.737243309617042542e-02
-1.753342337906360626e-02
-2.385236322879791260e-02
5.814155098050832748e-03
-4.463711753487586975e-02
-8.445409126579761505e-03
1.625492237508296967e-02
-1.288920920342206955e-02
-2.391104213893413544e-02
1.541831530630588531e-02
1.576432771980762482e-02
2.013165690004825592e-02
-1.296131964772939682e-02
2.904307842254638672e-02
6.932502985000610352e-02
6.545002013444900513e-02
-3.051491454243659973e-03
8.361999876797199249e-03
3.690734878182411194e-02
-2.714437432587146759e-02
1.897506415843963623e-02
3.686389885842800140e-03
-2.117251232266426086e-02
1.143914181739091873e-03
-1.858010189607739449e-03
1.832459308207035065e-02
2.134496532380580902e-02
-1.135271694511175156e-02
3.090537153184413910e-02
3.831520676612854004e-02
3.824072331190109253e-02
3.006515465676784515e-02
1.849413476884365082e-02
-3.562549501657485962e-02
-2.389866113662719727e-02
1.640221104025840759e-02
-8.173376321792602539e-03
1.925390027463436127e-02
-4.372181370854377747e-03
-3.379295393824577332e-02
2.905350923538208008e-02
6.339890509843826294e-02
4.595186188817024231e-02
1.490246597677469254e-02
3.154471889138221741e-02
5.606033280491828918e-02
-5.529690533876419067e-03
1.403521280735731125e-02
-2.804057113826274872e-02
-4.396054893732070923e-03
7.100503891706466675e-03
-2.187455259263515472e-02
-1.450789533555507660e-02
2.057729661464691162e-02
6.644422188401222229e-03
3.324937447905540466e-02
-3.616344882175326347e-03
-8.154676295816898346e-03
1.995133422315120697e-02
1.301316358149051666e-02
-7.327724248170852661e-03
4.425528272986412048e-02
-9.110714308917522430e-03
5.960669834166765213e-03
-1.616638526320457458e-02
2.447043359279632568e-02
-2.064309827983379364e-02
-5.588933359831571579e-03
4.511817172169685364e-02
3.443317860364913940e-02
2.309346012771129608e-02
8.381041139364242554e-02
4.840651899576187134e-02
6.214169785380363464e-02
3.953784331679344177e-02
1.131848245859146118e-02
-3.235751017928123474e-02
2.161252312362194061e-03
-2.005032077431678772e-02
4.095185082405805588e-03
2.842492796480655670e-02
-7.685195305384695530e-04
1.226578722707927227e-03
5.100829154253005981e-02
2.263257652521133423e-02
6.278508901596069336e-02
2.588729374110698700e-03
3.798341844230890274e-03
2.058813534677028656e-02
1.884074066765606403e-03
1.942451111972332001e-02
4.085966199636459351e-02
2.341236174106597900e-02
4.581962898373603821e-02
-2.082366961985826492e-03
-1.145400665700435638e-02
1.659261249005794525e-02
3.745969850569963455e-03
7.774920761585235596e-02
7.637790590524673462e-02
1.104789972305297852e-02
-2.031305106356739998e-03
4.061102867126464844e-02
1.303876983001828194e-03
2.473618835210800171e-02
-4.360910039395093918e-03
-2.090396359562873840e-02
-2.949711866676807404e-02
-3.860283875837922096e-03
2.487906999886035919e-02
-1.928291097283363342e-02
-5.038814619183540344e-03
3.690717741847038269e-02
6.529570091515779495e-03
2.868539653718471527e-02
3.549962863326072693e-02
4.477809369564056396e-02
4.584594815969467163e-02
4.309928417205810547e-02
2.794874645769596100e-02
7.214246783405542374e-03
7.058539986610412598e-02
-4.980420228093862534e-03
3.177301958203315735e-02
2.994885481894016266e-02
1.444820035248994827e-02
6.068497523665428162e-02
5.209122318774461746e-04
2.981012873351573944e-02
2.219833806157112122e-02
-1.209901086986064911e-02
-1.055419817566871643e-02
1.361871697008609772e-02
-1.509483624249696732e-02
2.141755819320678711e-02
3.890120610594749451e-02
1.282666460610926151e-03
-3.680830588564276695e-03
3.819623962044715881e-02
4.394411668181419373e-02
4.066342487931251526e-02
-5.909249186515808105e-03
-1.356575079262256622e-02
3.784218057990074158e-02
3.727528033778071404e-03
3.760886564850807190e-02
2.075997646898031235e-03
3.379303216934204102e-02
1.986618712544441223e-02
1.499671209603548050e-02
2.406822517514228821e-02
3.060182183980941772e-02
5.470454320311546326e-02
7.255379855632781982e-02
4.326089099049568176e-02
4.031296446919441223e-02
2.004239894449710846e-02
2.724419161677360535e-02
2.073982357978820801e-02
-5.824846215546131134e-03
2.720414102077484131e-02
2.011243021115660667e-03
-7.991511374711990356e-03
-1.035494171082973480e-02
-3.414074331521987915e-02
4.890474956482648849e-03
2.815334498882293701e-02
4.018964618444442749e-02
1.388743147253990173e-02
-1.410990301519632339e-02
-2.818660810589790344e-02
-4.403095692396163940e-03
2.548532560467720032e-02
2.723298594355583191e-02
6.671019364148378372e-04
2.213033474981784821e-02
3.991822525858879089e-02
6.447796709835529327e-03
2.233842015266418457e-02
1.113885920494794846e-02
2.037651278078556061e-02
6.781567353755235672e-03
5.280821770429611206e-02
1.126140449196100235e-02
-1.575404964387416840e-02
3.578214719891548157e-02
4.085846990346908569e-02
4.630075767636299133e-02
3.816623613238334656e-02
-9.270563721656799316e-03
-1.620940049178898335e-03
1.094316970556974411e-02
2.017532847821712494e-02
-2.461523376405239105e-02
2.054484002292156219e-02
2.272924035787582397e-02
-1.911697909235954285e-02
4.347618296742439270e-02
3.922897577285766602e-02
3.174424171447753906e-02
-9.142434224486351013e-03
-1.964548230171203613e-02
-3.040105476975440979e-02
-3.223622217774391174e-02
2.751289866864681244e-02
1.136632915586233139e-02
1.041913405060768127e-02
3.506370261311531067e-02
3.049257583916187286e-02
6.240873038768768311e-02
4.148922115564346313e-02
5.475581809878349304e-02
