2.706591412425041199e-02
1.945964619517326355e-02
3.747523948550224304e-02
-2.179395407438278198e-02
-1.206092536449432373e-02
-9.454784449189901352e-04
-8.544332347810268402e-03
2.908007614314556122e-02
2.251517586410045624e-02
2.691984921693801880e-02
8.342006185557693243e-05
1.991081051528453827e-02
9.101637988351285458e-04
-2.323828078806400299e-02
-2.411756291985511780e-02
4.895816743373870850e-02
-2.164351567625999451e-02
-1.297202520072460175e-02
-2.240388095378875732e-02
8.976171724498271942e-03
4.784869495779275894e-03
-1.686745882034301758e-02
1.314469706267118454e-02
1.182834990322589874e-02
-7.007906679064035416e-03
1.576517708599567413e-02
5.081017687916755676e-02
-4.879661719314754009e-04
8.665321394801139832e-03
3.095988370478153229e-02
2.745633758604526520e-02
2.329356595873832703e-02
-1.512636058032512665e-02
2.513935603201389313e-02
2.041942067444324493e-02
-4.427379462867975235e-03
-1.089033391326665878e-02
-1.432110182940959930e-02
-2.050739154219627380e-02
1.982856914401054382e-02
-1.016221474856138229e-02
1.119183260016143322e-03
-2.884846739470958710e-02
-1.202425826340913773e-02
4.889161884784698486e-02
-2.585559338331222534e-02
-1.977128535509109497e-02
1.273815613240003586e-02
1.618541032075881958e-02
-1.270183362066745758e-02
-1.511542592197656631e-02
1.488304231315851212e-02
1.799881458282470703e-02
2.549462206661701202e-02
4.786333441734313965e-02
-2.056202478706836700e-02
2.726219967007637024e-02
-3.422621404752135277e-03
1.217226777225732803e-02
-3.512469306588172913e-02
1.577695086598396301e-02
2.459866693243384361e-03
-2.281286567449569702e-02
-9.547648020088672638e-03
-3.374098986387252808e-02
6.008189171552658081e-03
1.136450842022895813e-02
-1.275848783552646637e-02
2.412910386919975281e-02
-7.403239607810974121e-03
2.264485880732536316e-02
-2.140259137377142906e-03
4.314168170094490051e-02
4.490643367171287537e-02
-2.690456248819828033e-02
3.070207126438617706e-02
2.557077445089817047e-02
-9.332339279353618622e-03
1.416502520442008972e-02
2.782643213868141174e-02
4.679613932967185974e-02
1.210274640470743179e-02
8.979720994830131531e-03
-2.457761391997337341e-02
1.861547864973545074e-02
-9.025871986523270607e-04
3.733756020665168762e-03
-5.637737456709146500e-03
-1.885226741433143616e-02
4.521410446614027023e-03
-1.332351285964250565e-02
1.623073033988475800e-02
-6.481793243438005447e-03
1.777721382677555084e-02
2.942248992621898651e-02
6.525566335767507553e-03
1.805078238248825073e-02
-1.734039187431335449e-02
2.524879761040210724e-02
1.031125430017709732e-02
2.271942608058452606e-02
8.041824330575764179e-04
6.091602891683578491e-02
-3.324045101180672646e-03
1.271223300136625767e-04
-1.674210466444492340e-02
2.471312321722507477e-02
2.608607895672321320e-02
9.463877417147159576e-03
4.290954675525426865e-03
-2.696717623621225357e-03
1.799991540610790253e-02
-1.430633012205362320e-02
3.554946184158325195e-02
-2.072567865252494812e-02
1.656298153102397919e-02
1.088784635066986084e-02
2.065737172961235046e-02
2.113751135766506195e-02
2.282112091779708862e-02
-2.423579804599285126e-02
3.747100755572319031e-02
3.827503696084022522e-02
-2.002357877790927887e-02
4.647343978285789490e-02
-1.029150281101465225e-02
-2.582175284624099731e-02
-1.693432778120040894e-02
