1.116814091801643372e-01
-1.698467135429382324e-02
-6.030616164207458496e-02
-1.048427075147628784e-01
3.930984809994697571e-02
-1.141619831323623657e-01
4.247377440333366394e-02
-8.121837675571441650e-02
1.172097325325012207e-01
7.236035913228988647e-02
3.917337954044342041e-02
1.378388050943613052e-02
-4.708394873887300491e-03
3.681398928165435791e-02
2.568235853686928749e-03
8.794900774955749512e-02
-4.197917878627777100e-02
-1.166822835803031921e-01
-1.458103209733963013e-02
7.607758045196533203e-02
4.950290173292160034e-02
4.500674083828926086e-03
1.318032201379537582e-02
2.530870260670781136e-03
-2.284529246389865875e-02
-6.604547798633575439e-02
-6.874600797891616821e-02
-8.714829385280609131e-02
-6.926760077476501465e-02
-1.171862855553627014e-01
8.815664798021316528e-02
-4.810673370957374573e-02
-8.522804826498031616e-02
3.381353616714477539e-02
-1.108406260609626770e-01
9.686782956123352051e-03
6.348793953657150269e-02
3.938380628824234009e-02
6.729772686958312988e-02
4.997399821877479553e-02
6.550516933202743530e-02
-1.111822575330734253e-01
8.366657793521881104e-02
7.889077067375183105e-02
-8.562186360359191895e-02
-3.480100259184837341e-02
9.701298922300338745e-02
5.477131158113479614e-02
-7.023308426141738892e-02
2.960058301687240601e-02
7.509949058294296265e-02
-9.477250277996063232e-02
7.948609441518783569e-02
-7.274848222732543945e-02
-6.790383905172348022e-02
7.666277885437011719e-02
-4.640282690525054932e-02
-3.658356145024299622e-02
-3.391240537166595459e-02
1.955569162964820862e-02
-9.930980205535888672e-02
2.304659038782119751e-02
3.719545528292655945e-02
-5.450532585382461548e-02
-2.862374484539031982e-02
5.007228627800941467e-02
-1.600923389196395874e-02
5.882057547569274902e-02
2.648605965077877045e-02
-6.114434078335762024e-02
-2.218443714082241058e-02
-9.453507140278816223e-03
2.373305335640907288e-02
-1.331321448087692261e-01
-1.018255203962326050e-01
-1.755028963088989258e-02
5.021364614367485046e-02
-4.943990334868431091e-02
4.027661681175231934e-02
1.107630357146263123e-01
-1.084784343838691711e-01
7.440029829740524292e-02
-6.554793566465377808e-02
-3.569677844643592834e-02
-7.766100764274597168e-02
-8.575595915317535400e-02
5.928116291761398315e-02
-9.963349997997283936e-02
5.949349701404571533e-02
-8.999426849186420441e-03
7.792249321937561035e-02
-9.807839244604110718e-02
-7.448796182870864868e-02
4.339353740215301514e-02
1.655436307191848755e-02
-6.597363203763961792e-02
7.430254481732845306e-03
-1.021712571382522583e-01
6.609351933002471924e-02
-9.395387023687362671e-02
-6.228965148329734802e-02
-9.518353641033172607e-02
1.628091000020503998e-02
-8.475491404533386230e-02
-4.734149947762489319e-02
7.388275116682052612e-02
5.986221507191658020e-02
1.013276129961013794e-01
4.499214515089988708e-02
4.652945324778556824e-03
-3.125469386577606201e-02
9.893986582756042480e-02
-9.414540603756904602e-03
-1.251550912857055664e-01
2.091581374406814575e-02
-1.334604769945144653e-01
-7.721691578626632690e-02
-9.219830483198165894e-02
5.544720962643623352e-02
-1.015285626053810120e-01
-1.609898172318935394e-02
-8.423855155706405640e-02
3.268905682489275932e-03
-6.729169189929962158e-02
-9.936437010765075684e-03
-5.182771384716033936e-02
6.811530143022537231e-02
-1.061694175004959106e-01
-9.590557217597961426e-02
4.639434814453125000e-02
-9.679508209228515625e-02
-4.397197812795639038e-02
1.075185909867286682e-01
9.785910695791244507e-02
6.756647676229476929e-02
-3.224178403615951538e-02
-9.678355604410171509e-02
-7.131486386060714722e-02
3.202953934669494629e-02
-5.218637641519308090e-03
9.005654603242874146e-02
-1.005848720669746399e-01
-9.019821137189865112e-02
-6.327847391366958618e-02
-6.716185063123703003e-02
-1.180695295333862305e-01
-1.766071096062660217e-02
-6.577105075120925903e-02
9.186252206563949585e-02
4.519788920879364014e-02
-7.182592153549194336e-02
-4.485839232802391052e-02
4.781645908951759338e-02
7.291870564222335815e-02
-6.621289998292922974e-02
-8.428104966878890991e-02
2.319677174091339111e-02
8.230943977832794189e-02
6.425161659717559814e-02
6.177426502108573914e-02
-5.380330979824066162e-02
-1.181271951645612717e-02
-1.909145340323448181e-02
-5.404985323548316956e-02
-1.067931056022644043e-01
1.762424246408045292e-03
-1.702025160193443298e-02
3.615317866206169128e-02
1.480377279222011566e-02
5.019772425293922424e-02
5.849061533808708191e-02
6.004345044493675232e-02
1.458882447332143784e-02
-8.180373907089233398e-02
-5.504453554749488831e-03
3.735314682126045227e-02
-9.775416553020477295e-02
5.182125419378280640e-02
-5.168797820806503296e-02
8.106126636266708374e-02
7.097017485648393631e-03
8.595462143421173096e-02
8.939281851053237915e-02
5.516752973198890686e-02
-1.063775941729545593e-01
-1.119446530938148499e-01
-1.049880608916282654e-01
-4.964038357138633728e-02
1.766829006373882294e-02
-1.066299676895141602e-01
-9.184447675943374634e-02
6.564079970121383667e-02
-3.567390888929367065e-02
8.423601835966110229e-02
6.713224202394485474e-02
-7.464772462844848633e-02
2.483800239861011505e-02
-7.399491965770721436e-02
9.784786403179168701e-02
-6.483697891235351562e-02
8.307279646396636963e-02
-1.944222301244735718e-02
4.898856207728385925e-02
-6.080468371510505676e-02
6.940574944019317627e-02
6.587915867567062378e-02
3.480426594614982605e-02
9.166510403156280518e-02
8.618555963039398193e-02
-2.510658465325832367e-02
-6.826773285865783691e-02
-8.835995942354202271e-02
-8.007494360208511353e-02
2.111575752496719360e-02
4.574961587786674500e-02
7.047393172979354858e-02
-6.917088478803634644e-02
7.753590494394302368e-02
1.084423903375864029e-02
-6.503839045763015747e-02
-3.048768825829029083e-02
-9.356829524040222168e-02
2.489233389496803284e-02
-1.059911400079727173e-01
-1.044132485985755920e-01
9.214089065790176392e-02
-7.338026911020278931e-02
-2.747354097664356232e-02
5.154191516339778900e-03
-1.075818836688995361e-01
4.498322680592536926e-02
8.532799780368804932e-02
2.846581488847732544e-02
-8.139535039663314819e-02
-2.408625930547714233e-02
7.039463520050048828e-02
3.448236361145973206e-02
-8.714905381202697754e-02
-3.475945070385932922e-02
6.087993085384368896e-02
-1.420432329177856445e-01
1.155796423554420471e-01
4.346618056297302246e-02
-9.077258408069610596e-02
-9.372188895940780640e-02
1.216918230056762695e-01
5.417820438742637634e-02
-1.146774590015411377e-01
1.707311160862445831e-02
-1.003061011433601379e-01
7.001181691884994507e-02
-1.125293821096420288e-01
1.047794744372367859e-01
-9.362066164612770081e-03
-1.011687517166137695e-01
1.196556258946657181e-02
-4.930833354592323303e-02
-1.040589585900306702e-01
4.940443858504295349e-02
7.797738164663314819e-02
-1.071720644831657410e-01
7.770942896604537964e-02
6.631149351596832275e-02
5.306512583047151566e-03
6.283295154571533203e-02
-1.035880520939826965e-01
1.098964363336563110e-01
-7.222225517034530640e-02
4.282738640904426575e-02
-2.451671287417411804e-03
-1.264978386461734772e-02
-5.729772523045539856e-02
3.654062375426292419e-02
6.771894544363021851e-02
6.728547066450119019e-02
-3.878236562013626099e-02
5.003657191991806030e-02
8.405615389347076416e-02
7.270191609859466553e-02
-1.135206595063209534e-01
4.825178533792495728e-02
5.158536881208419800e-02
-1.222381293773651123e-01
-6.113510206341743469e-02
6.460408866405487061e-02
-1.266404390335083008e-01
2.423295984044671059e-03
-5.536864697933197021e-02
1.088788062334060669e-01
-6.162477657198905945e-02
-1.161481216549873352e-01
-1.309517174959182739e-01
-1.019523069262504578e-01
2.207012847065925598e-02
-2.938702329993247986e-02
-2.556084841489791870e-02
1.150463074445724487e-01
-3.429275751113891602e-02
-1.148477941751480103e-01
6.642115861177444458e-02
-9.768307954072952271e-02
-5.847016815096139908e-03
-4.397636279463768005e-02
-4.484143480658531189e-02
-3.590773046016693115e-02
-4.308314993977546692e-02
-1.426198519766330719e-02
-8.889254927635192871e-02
2.373527362942695618e-02
-1.169087141752243042e-01
-8.798427134752273560e-02
-8.962564915418624878e-02
5.341760814189910889e-02
1.009519398212432861e-02
2.680121362209320068e-02
-5.327172949910163879e-02
1.131906732916831970e-01
-1.122911795973777771e-01
4.209496453404426575e-02
-1.407249830663204193e-02
5.692224949598312378e-02
6.645607762038707733e-03
1.019813716411590576e-01
7.207769900560379028e-02
2.312779612839221954e-02
3.035076707601547241e-02
9.427309036254882812e-02
-5.599612742662429810e-02
2.473969757556915283e-02
-6.224073097109794617e-02
-2.707117423415184021e-02
-3.319407626986503601e-02
-1.015712544322013855e-01
-6.173205748200416565e-02
-6.847000867128372192e-02
-3.153665736317634583e-02
-7.103965617716312408e-03
5.971986055374145508e-02
-5.807377770543098450e-02
-3.311873227357864380e-02
-2.277019806206226349e-02
-1.021461412310600281e-01
7.347261905670166016e-02
-1.389739364385604858e-01
-9.117551147937774658e-02
-1.234867051243782043e-01
-4.885097593069076538e-02
-6.703328341245651245e-02
7.919844985008239746e-02
6.708629429340362549e-02
-8.411069214344024658e-02
-7.615444064140319824e-02
-1.232321336865425110e-01
-8.991038054227828979e-02
3.624275699257850647e-02
5.338753014802932739e-02
-1.678895801305770874e-01
3.129592910408973694e-02
2.034667134284973145e-02
1.308944355696439743e-02
7.871303707361221313e-02
-8.313680440187454224e-02
-7.887534797191619873e-02
-4.295323044061660767e-02
9.238848090171813965e-02
9.891220927238464355e-02
-1.647152937948703766e-02
-8.515743166208267212e-02
-4.393041506409645081e-02
-2.540561743080615997e-02
-4.950375109910964966e-02
1.534712500870227814e-02
3.671274334192276001e-02
9.256833046674728394e-02
6.969944387674331665e-02
5.359183251857757568e-02
-2.800075523555278778e-02
9.398593008518218994e-02
-1.099062263965606689e-01
-2.843878045678138733e-02
-4.039143770933151245e-02
-1.490235030651092529e-01
-5.896349623799324036e-02
-2.570702321827411652e-02
-9.716874919831752777e-03
-1.434971094131469727e-01
9.734343737363815308e-02
6.521909683942794800e-02
-8.203183859586715698e-02
-6.152125447988510132e-02
8.494155108928680420e-02
5.306482315063476562e-02
-4.472808167338371277e-02
-9.124398231506347656e-02
9.424437582492828369e-02
-8.967556804418563843e-02
6.452307850122451782e-02
1.051311939954757690e-01
6.034953147172927856e-02
4.798087477684020996e-02
7.575361430644989014e-02
-1.365405321121215820e-01
5.695553496479988098e-02
-6.023977696895599365e-02
7.503802329301834106e-02
5.469483509659767151e-02
9.243214130401611328e-02
8.692247420549392700e-02
-1.207062527537345886e-01
5.514353513717651367e-02
-1.433576047420501709e-01
1.412285026162862778e-02
6.451278924942016602e-03
3.729111701250076294e-02
-9.518361091613769531e-02
-3.093601018190383911e-02
-8.542340993881225586e-02
-9.294046461582183838e-02
9.279269725084304810e-02
6.310817599296569824e-02
-3.024048171937465668e-02
-1.470299996435642242e-02
8.064206689596176147e-02
4.029143974184989929e-02
-3.082741610705852509e-02
-9.339059889316558838e-02
-6.387145817279815674e-02
-1.284452434629201889e-02
3.883365914225578308e-02
5.949094146490097046e-02
9.274625778198242188e-02
4.246774688363075256e-02
-5.399681627750396729e-02
-1.843026466667652130e-02
-1.571795903146266937e-02
2.555029653012752533e-02
7.805103063583374023e-02
6.556366384029388428e-02
-3.188105672597885132e-02
1.982134953141212463e-02
-9.419286996126174927e-02
6.811522692441940308e-02
6.744104623794555664e-02
-7.491975277662277222e-02
7.719770818948745728e-02
-2.096320129930973053e-02
-5.521142482757568359e-02
8.837997168302536011e-02
4.701543226838111877e-02
3.807862102985382080e-02
8.573791943490505219e-03
5.463024973869323730e-02
-1.978201605379581451e-02
-2.939707972109317780e-02
4.023819416761398315e-02
-5.568169429898262024e-02
-7.794036716222763062e-02
4.619713872671127319e-02
-7.617810368537902832e-02
-9.760759770870208740e-02
-9.322876483201980591e-02
-1.870295964181423187e-02
7.584808766841888428e-02
-7.879821956157684326e-02
-1.210721135139465332e-01
-9.432125091552734375e-02
-2.246790379285812378e-02
-4.344535991549491882e-02
9.921284019947052002e-02
-5.949714779853820801e-02
-1.370065957307815552e-01
-8.535439521074295044e-02
-6.670425832271575928e-02
-8.783552795648574829e-02
9.864496067166328430e-03
5.374250560998916626e-02
2.535400725901126862e-02
-9.463059902191162109e-02
-1.013064831495285034e-01
-6.932155787944793701e-02
-1.052331551909446716e-01
-3.377379849553108215e-02
-1.221599727869033813e-01
-1.561855971813201904e-01
1.247422304004430771e-02
5.464220419526100159e-02
-7.063964009284973145e-02
-7.749772816896438599e-02
-5.085018649697303772e-02
-1.004990041255950928e-01
3.446868062019348145e-02
-2.796589024364948273e-02
3.450272232294082642e-02
3.127356618642807007e-02
-4.613232985138893127e-02
-5.857845768332481384e-02
1.802863366901874542e-02
2.094633318483829498e-02
-5.287754908204078674e-02
-9.050362557172775269e-02
-8.231151103973388672e-02
-1.051611179718747735e-04
-9.964719414710998535e-02
-1.369657516479492188e-01
-2.565321512520313263e-02
-3.052522055804729462e-02
4.045762494206428528e-02
-5.458502098917961121e-02
-1.118938326835632324e-01
3.239193931221961975e-02
-1.373960077762603760e-02
7.312551140785217285e-02
-1.131192147731781006e-01
2.060977369546890259e-02
-3.111770376563072205e-02
7.331894338130950928e-02
-2.240888029336929321e-02
-7.407327741384506226e-02
1.865393668413162231e-02
2.045039646327495575e-02
-1.034929454326629639e-01
-2.286396361887454987e-02
-6.278026103973388672e-02
-5.979843065142631531e-02
7.901868224143981934e-02
-2.748231403529644012e-02
9.844084829092025757e-02
-1.469646990299224854e-01
-4.884020425379276276e-03
6.623016297817230225e-02
-1.094543281942605972e-02
5.235229432582855225e-02
-4.698762297630310059e-02
-3.194456547498703003e-02
-1.341578513383865356e-01
7.057708501815795898e-02
3.766095638275146484e-02
-6.288977712392807007e-02
7.407850027084350586e-02
-2.490029204636812210e-03
-4.316132143139839172e-02
-8.618297427892684937e-02
1.056990846991539001e-01
-9.857665747404098511e-02
-1.273997128009796143e-01
-3.663374856114387512e-02
4.697082098573446274e-03
4.251447506248950958e-03
-1.414704471826553345e-01
-1.109150499105453491e-01
6.654297560453414917e-02
5.845290422439575195e-02
6.262125074863433838e-02
-3.020793944597244263e-02
-7.422459870576858521e-02
1.163494586944580078e-02
9.388818591833114624e-02
5.539337545633316040e-02
-6.931856274604797363e-02
-8.662647753953933716e-02
-4.614326357841491699e-02
-6.059269979596138000e-02
1.109832301153801382e-04
8.496042340993881226e-02
-1.622522808611392975e-02
-5.720971897244453430e-02
5.067548155784606934e-02
-7.787553220987319946e-02
2.619221806526184082e-02
6.971377879381179810e-02
-1.070111617445945740e-01
2.960045635700225830e-02
-9.512331336736679077e-02
-9.378401190042495728e-02
2.438084036111831665e-02
-1.221992745995521545e-01
-1.326228491961956024e-02
9.554325789213180542e-02
1.972205378115177155e-02
-7.050754129886627197e-02
8.900476247072219849e-02
-1.123207584023475647e-01
7.340916991233825684e-02
5.109775438904762268e-02
1.179502531886100769e-01
7.254526764154434204e-02
-4.597008600831031799e-02
-1.009235680103302002e-01
-8.005802519619464874e-03
-4.658562317490577698e-02
-5.981971696019172668e-02
-7.293606549501419067e-02
-1.413315534591674805e-02
-1.557747833430767059e-02
1.350275333970785141e-02
1.040685102343559265e-01
-1.292952895164489746e-01
9.763960540294647217e-02
-7.739391177892684937e-03
3.934501484036445618e-02
-5.185229331254959106e-02
-1.260674595832824707e-01
-7.901327311992645264e-02
4.262328520417213440e-02
-1.587905362248420715e-02
-9.165590256452560425e-02
5.152338743209838867e-02
-1.205657944083213806e-01
8.898240327835083008e-02
-3.500468796119093895e-03
-6.003771722316741943e-02
2.830116776749491692e-03
8.052647858858108521e-02
1.465364452451467514e-02
9.575239568948745728e-02
-1.291108876466751099e-01
-6.776597350835800171e-02
-1.510809659957885742e-01
-1.255287528038024902e-01
6.099839136004447937e-02
-4.435678943991661072e-02
3.568638488650321960e-02
4.556015133857727051e-02
-9.558140486478805542e-02
-6.822052597999572754e-02
-1.138578131794929504e-01
4.369343072175979614e-02
-4.630726575851440430e-02
4.634663835167884827e-02
-8.035904169082641602e-02
-6.713838130235671997e-02
5.815974622964859009e-02
-3.969476372003555298e-02
-1.281666010618209839e-01
-6.322478502988815308e-02
9.803496301174163818e-02
8.969318121671676636e-02
8.248049765825271606e-02
6.602696329355239868e-02
8.661765605211257935e-02
1.407560985535383224e-02
6.247080489993095398e-02
8.921540342271327972e-03
-4.354402795433998108e-02
2.119579911231994629e-02
7.747627794742584229e-02
1.375543978065252304e-02
6.351036485284566879e-03
-8.375659584999084473e-02
1.404562219977378845e-02
1.851091533899307251e-02
-3.586519509553909302e-02
-5.688480287790298462e-02
1.438864320516586304e-02
-1.240362226963043213e-01
-5.719649419188499451e-02
2.544421702623367310e-02
8.154100924730300903e-02
-1.865309546701610088e-03
1.068665366619825363e-02
-1.265326887369155884e-01
-1.268321871757507324e-01
6.020407751202583313e-02
-8.368138968944549561e-02
-1.625007390975952148e-02
1.003824248909950256e-01
-1.067760661244392395e-01
-1.550170592963695526e-02
-1.275684088468551636e-01
-9.438708424568176270e-02
3.471101447939872742e-02
9.395009279251098633e-02
-2.652078866958618164e-02
4.720261693000793457e-02
5.577358230948448181e-02
7.945021241903305054e-02
6.847121566534042358e-02
-7.002563029527664185e-02
-1.253790967166423798e-02
-1.066971197724342346e-01
-1.180949136614799500e-01
-6.449494510889053345e-02
2.067036926746368408e-02
2.708015590906143188e-02
2.905058488249778748e-02
3.816761821508407593e-02
-5.684364959597587585e-02
8.094670623540878296e-02
6.044579297304153442e-02
-1.006094589829444885e-01
7.052373141050338745e-02
-8.261507749557495117e-02
-7.364410907030105591e-02
-1.142059266567230225e-01
-7.711970061063766479e-02
-1.120174955576658249e-02
-8.733795583248138428e-02
6.190163642168045044e-02
2.210448496043682098e-02
-3.077571652829647064e-02
-7.764536142349243164e-02
2.500415965914726257e-02
5.007182061672210693e-02
7.880975306034088135e-02
-4.235664010047912598e-02
-9.874050319194793701e-02
9.933280199766159058e-02
-7.056913524866104126e-02
-1.301366984844207764e-01
-9.708011639304459095e-04
-1.306020468473434448e-01
-4.835646227002143860e-02
-5.854893103241920471e-02
3.233862668275833130e-02
1.036467310041189194e-02
5.580519884824752808e-02
-7.235497981309890747e-02
1.089933700859546661e-02
6.301615387201309204e-02
-9.416744112968444824e-02
-3.057285398244857788e-02
3.922381252050399780e-02
-5.347203090786933899e-02
6.579238176345825195e-02
1.021398752927780151e-01
-2.099888585507869720e-02
-8.279792964458465576e-02
7.438232749700546265e-02
-3.368273749947547913e-02
-9.432620555162429810e-02
-5.302208662033081055e-02
-1.079165413975715637e-01
-4.589144885540008545e-02
-3.147904947400093079e-02
2.099784649908542633e-02
1.913352124392986298e-02
-1.195285245776176453e-01
-7.298823446035385132e-02
-8.428841829299926758e-02
1.441812142729759216e-03
-5.442327633500099182e-02
4.053764790296554565e-02
-4.744045436382293701e-02
1.089339628815650940e-01
-1.368543356657028198e-01
-7.406013458967208862e-02
-1.119226813316345215e-01
-7.656558603048324585e-02
-6.260119378566741943e-02
9.472147375345230103e-02
6.702387332916259766e-02
-6.017684563994407654e-02
-1.267169713973999023e-01
-3.837897256016731262e-02
-1.924313232302665710e-02
-6.995601952075958252e-02
9.819789975881576538e-02
-5.035792291164398193e-02
1.002287939190864563e-01
9.650347381830215454e-02
-7.061433047056198120e-02
-8.574417233467102051e-02
2.453502640128135681e-02
8.370526880025863647e-02
-8.669225126504898071e-02
7.290249317884445190e-02
-1.399478781968355179e-02
3.615697100758552551e-02
1.485374197363853455e-02
5.805308930575847626e-03
-1.080150157213211060e-02
7.651633769273757935e-02
6.049976125359535217e-02
-1.309185475111007690e-01
-1.239606291055679321e-01
7.351095974445343018e-02
-7.801206316798925400e-03
6.947913207113742828e-03
-4.380350559949874878e-02
-2.139635197818279266e-02
-1.014496758580207825e-01
-3.440121933817863464e-02
5.588815361261367798e-02
-1.176542229950428009e-02
3.362340852618217468e-02
6.402395665645599365e-02
1.976912841200828552e-02
-8.674547076225280762e-02
3.634040011093020439e-03
-6.864693015813827515e-03
-1.032644044607877731e-02
-1.291789021342992783e-02
5.952518060803413391e-02
1.735368184745311737e-02
3.801592066884040833e-02
8.289623260498046875e-02
5.138414353132247925e-02
-9.969322383403778076e-02
8.992873132228851318e-02
-7.985622435808181763e-02
-7.878864556550979614e-02
6.411310285329818726e-02
-1.350410133600234985e-01
8.674347400665283203e-02
-2.706184051930904388e-02
2.655486762523651123e-02
3.570998460054397583e-02
4.390316456556320190e-02
9.892147965729236603e-03
9.769749641418457031e-02
2.453273907303810120e-02
3.765605390071868896e-02
-1.297117024660110474e-01
-1.146700829267501831e-01
-1.309912502765655518e-01
-5.454501137137413025e-02
9.372656792402267456e-02
5.667449906468391418e-02
-8.669259957969188690e-03
-8.126273751258850098e-02
-5.538168922066688538e-02
7.432897388935089111e-02
3.769866377115249634e-02
8.105314522981643677e-02
-1.201092498376965523e-03
9.895331459119915962e-04
-9.610788524150848389e-02
-7.520641386508941650e-02
-6.963624805212020874e-02
6.377209909260272980e-03
3.393698425497859716e-04
1.926535367965698242e-02
-3.188988938927650452e-02
9.212361276149749756e-02
9.592786431312561035e-03
-9.120205044746398926e-02
-5.851407721638679504e-02
6.611978262662887573e-02
-2.733168192207813263e-02
8.918144553899765015e-02
-5.478258803486824036e-02
1.485682651400566101e-02
-2.103818766772747040e-02
2.097029937431216240e-03
1.178478673100471497e-01
-7.715552300214767456e-02
3.021857887506484985e-02
4.675317928194999695e-02
-3.156774863600730896e-02
-7.492230087518692017e-02
1.201407611370086670e-02
-1.036874055862426758e-01
2.501801587641239166e-02
-1.325586140155792236e-01
3.520324081182479858e-02
-5.361921712756156921e-02
1.739562116563320160e-02
-2.804328501224517822e-02
2.998851798474788666e-02
-9.036553651094436646e-02
3.320197388529777527e-02
9.453444182872772217e-02
-1.082675531506538391e-01
-4.379582032561302185e-02
4.878200998064130545e-04
2.707335166633129120e-02
-1.808787696063518524e-02
-3.177146241068840027e-02
4.948306828737258911e-02
-4.979262873530387878e-02
2.585746161639690399e-02
-3.501924127340316772e-02
6.349082291126251221e-02
2.807144820690155029e-02
-5.080342758446931839e-03
4.884845763444900513e-02
4.695245996117591858e-02
-8.269025385379791260e-02
-1.426358371973037720e-01
-5.809546634554862976e-02
5.924164131283760071e-02
4.408767074346542358e-02
-1.028782315552234650e-02
-3.406520560383796692e-02
6.240338087081909180e-02
-7.050947099924087524e-02
2.732157334685325623e-02
3.048622794449329376e-02
-2.189779281616210938e-02
-3.898639604449272156e-02
2.061105333268642426e-02
6.048581376671791077e-02
-8.582592010498046875e-02
-9.007903933525085449e-02
-1.680836826562881470e-02
6.219312548637390137e-02
-9.752696752548217773e-02
1.098719760775566101e-01
3.757522255182266235e-02
-7.912241667509078979e-02
-1.241020113229751587e-01
4.394109919667243958e-02
-8.742956072092056274e-02
-5.190551746636629105e-03
-1.269012242555618286e-01
-1.510696252807974815e-03
-2.995162270963191986e-02
-2.205032482743263245e-02
5.709958076477050781e-02
-4.757844284176826477e-02
3.239973681047558784e-03
1.078677624464035034e-01
5.965576693415641785e-02
7.198754698038101196e-02
4.736872762441635132e-02
-5.850749462842941284e-02
5.774094536900520325e-02
-9.635024517774581909e-02
-1.260832995176315308e-01
8.598127961158752441e-02
-1.499189436435699463e-01
-1.179923415184020996e-01
5.863891169428825378e-02
5.969145894050598145e-02
-1.407686620950698853e-01
1.031914632767438889e-02
6.833136081695556641e-02
4.355260729789733887e-02
-7.681164145469665527e-02
3.361918032169342041e-02
-8.037175983190536499e-02
-6.251795589923858643e-02
1.185421925038099289e-02
1.283803433179855347e-01
1.195213384926319122e-02
8.056139200925827026e-02
2.985519915819168091e-02
-7.611269503831863403e-02
-1.386293470859527588e-01
-1.185458600521087646e-01
3.275158628821372986e-02
6.664062291383743286e-02
5.715789645910263062e-02
-1.240656971931457520e-01
-9.549379348754882812e-02
-1.209053583443164825e-02
-9.320447593927383423e-02
-4.442955926060676575e-02
-5.364293977618217468e-02
1.780139468610286713e-02
-3.569122776389122009e-02
6.467469781637191772e-02
-1.178734451532363892e-01
8.532059192657470703e-02
1.050612479448318481e-01
-2.261358872056007385e-02
-6.499373167753219604e-02
-5.653621256351470947e-02
-1.052776053547859192e-01
-3.383264318108558655e-02
5.993994697928428650e-02
7.386457920074462891e-02
-8.227725327014923096e-02
-1.025145798921585083e-01
-3.049753047525882721e-02
5.672055482864379883e-02
-1.497430801391601562e-01
-7.765456289052963257e-02
-3.338479995727539062e-02
-3.719405084848403931e-02
-1.942566782236099243e-02
-1.033412441611289978e-01
-2.616851590573787689e-02
-1.073035374283790588e-01
-1.138988584280014038e-01
-1.405226998031139374e-03
6.347713619470596313e-02
9.972316026687622070e-02
-9.414108842611312866e-02
-5.871237069368362427e-02
-7.350785285234451294e-02
-8.997366577386856079e-02
6.539538502693176270e-02
-8.891284465789794922e-02
-2.373565733432769775e-02
-2.074680663645267487e-02
-7.369647920131683350e-02
3.538497537374496460e-02
-6.049631163477897644e-02
-1.426892429590225220e-01
3.282065689563751221e-02
-8.830467239022254944e-03
1.297264695167541504e-01
-1.291231811046600342e-01
-7.499501854181289673e-02
6.741303950548171997e-02
-1.261252015829086304e-01
-9.959184378385543823e-02
-9.115008264780044556e-02
1.220691855996847153e-02
5.666065216064453125e-02
-5.866552889347076416e-02
-8.726090937852859497e-02
7.729811966419219971e-02
-1.252512484788894653e-01
-8.934371173381805420e-02
7.709525525569915771e-02
-1.378733897581696510e-03
3.623079508543014526e-02
1.036714911460876465e-01
-4.531729593873023987e-02
2.695811167359352112e-02
7.668439764529466629e-03
7.812926918268203735e-02
-2.812856435775756836e-02
1.122074946761131287e-01
-1.369279623031616211e-02
4.298589006066322327e-02
1.000920534133911133e-01
5.046943947672843933e-02
1.886831037700176239e-02
-4.373429715633392334e-02
-1.143637821078300476e-01
-2.476743247825652361e-04
-6.273043155670166016e-02
-4.491122439503669739e-02
-1.901056990027427673e-02
3.476357460021972656e-02
5.251082405447959900e-02
-3.188336268067359924e-02
3.272833675146102905e-02
7.703217118978500366e-02
3.562397137284278870e-02
-5.816957354545593262e-02
3.839313983917236328e-03
2.730615995824337006e-02
-5.736136063933372498e-02
6.930465251207351685e-02
-3.780909627676010132e-02
8.985993266105651855e-02
7.188847661018371582e-02
4.367218818515539169e-03
-8.996312320232391357e-02
-5.409446079283952713e-03
5.183920264244079590e-02
-1.050779148936271667e-01
3.147179260849952698e-02
9.942272305488586426e-02
-1.171777173876762390e-01
-3.816220536828041077e-02
-5.643490329384803772e-02
4.468159377574920654e-02
-4.132772237062454224e-02
-2.649629861116409302e-02
-1.221241429448127747e-01
-1.137389913201332092e-01
3.616170026361942291e-03
3.008616343140602112e-02
6.315025687217712402e-02
5.171393975615501404e-02
4.622372612357139587e-02
-7.931571453809738159e-02
-3.301037847995758057e-02
-1.171684637665748596e-01
-8.558283746242523193e-02
4.102811217308044434e-02
-1.975811645388603210e-02
-1.315969824790954590e-01
-8.083502948284149170e-02
5.748471617698669434e-02
-8.116304874420166016e-02
1.640104688704013824e-02
-7.365246117115020752e-02
5.977480323053896427e-04
-3.618334606289863586e-02
1.006384100764989853e-02
-3.744167834520339966e-02
6.477053463459014893e-02
7.476494461297988892e-02
-4.936650395393371582e-02
-1.826160028576850891e-02
-1.144333854317665100e-01
1.358312927186489105e-02
-7.439687848091125488e-02
2.239724993705749512e-02
3.426171606406569481e-03
4.240288212895393372e-02
4.046141169965267181e-03
1.920030266046524048e-02
7.480381429195404053e-02
-1.221604943275451660e-01
-5.514585971832275391e-02
-7.337328046560287476e-02
4.609446227550506592e-02
5.956841260194778442e-02
-1.285422146320343018e-01
-7.568569388240575790e-03
-1.143611446022987366e-01
8.763948827981948853e-02
-1.432668534107506275e-03
6.213480141013860703e-03
-1.229613646864891052e-01
7.904293388128280640e-02
-8.237207680940628052e-02
7.738061249256134033e-02
-7.826974987983703613e-02
2.094219997525215149e-02
-7.189951837062835693e-02
-2.609919197857379913e-02
-1.005526408553123474e-01
-2.688095718622207642e-02
-9.807815402746200562e-02
-4.334145784378051758e-02
7.501752674579620361e-02
-7.694543898105621338e-02
-1.010026931762695312e-01
8.770312182605266571e-03
7.377589493989944458e-02
-7.738706469535827637e-02
6.571902334690093994e-02
4.144457727670669556e-02
-4.950024187564849854e-02
1.083201318979263306e-01
5.854356288909912109e-02
-9.659585356712341309e-02
5.501864850521087646e-02
-1.402745395898818970e-01
3.237990662455558777e-02
-1.177852600812911987e-01
-6.573589891195297241e-02
6.876281648874282837e-02
-2.864866890013217926e-02
8.838854730129241943e-02
-1.108221039175987244e-01
8.778572082519531250e-03
9.374602138996124268e-02
-4.657068755477666855e-03
-2.079588361084461212e-02
-8.294893056154251099e-02
4.113310202956199646e-02
1.198939606547355652e-02
-1.277810186147689819e-01
2.325004898011684418e-02
1.998835429549217224e-02
6.507680565118789673e-02
8.432750403881072998e-02
-1.278283894062042236e-01
-7.062086462974548340e-02
-5.373357795178890228e-03
-6.254017353057861328e-02
-4.280730336904525757e-02
-8.720625191926956177e-03
1.800679787993431091e-02
-7.057884242385625839e-03
-5.872385110706090927e-03
1.128454040735960007e-02
-5.771817266941070557e-02
5.889200419187545776e-02
-4.071643576025962830e-02
5.502502992749214172e-02
6.210555508732795715e-02
7.568769156932830811e-02
-1.045298725366592407e-01
4.280614107847213745e-02
-2.028937824070453644e-02
-1.525814235210418701e-01
7.109857350587844849e-02
-8.089580386877059937e-02
6.951960921287536621e-02
-1.063551977276802063e-01
-5.062235146760940552e-02
1.113666966557502747e-01
-7.607025653123855591e-02
1.703451573848724365e-02
-3.832892701029777527e-02
-1.321485787630081177e-01
-1.037565097212791443e-01
-2.033388614654541016e-02
1.185794919729232788e-01
-1.006139740347862244e-01
-3.522409871220588684e-02
-6.384989619255065918e-02
-7.274511735886335373e-03
-6.369691342115402222e-02
-2.493887953460216522e-02
3.353069722652435303e-02
1.005982384085655212e-01
8.438950777053833008e-02
5.441609025001525879e-02
-7.266183942556381226e-02
-8.122862875461578369e-02
5.016501992940902710e-02
-1.352401375770568848e-01
-9.919176250696182251e-02
8.067713677883148193e-02
6.497249007225036621e-02
6.972168385982513428e-02
3.512399271130561829e-02
6.779602169990539551e-02
-8.314450085163116455e-02
3.855933621525764465e-02
-1.603900222107768059e-03
-5.355974286794662476e-02
-7.945960760116577148e-02
-4.974916577339172363e-02
2.118285000324249268e-02
-1.192080825567245483e-01
-6.598092615604400635e-02
-1.468123197555541992e-01
9.674789756536483765e-02
5.118358135223388672e-02
-6.388219445943832397e-02
-1.134406123310327530e-02
6.800443679094314575e-02
-5.694717541337013245e-02
5.922044813632965088e-02
6.657917052507400513e-03
4.448339343070983887e-02
-4.396120458841323853e-02
1.415323931723833084e-02
1.085813902318477631e-02
4.532346874475479126e-02
3.431284427642822266e-02
-5.913337692618370056e-02
-9.712088108062744141e-02
2.369224652647972107e-02
-7.259377837181091309e-02
9.371168911457061768e-02
-6.705620884895324707e-02
-4.123560711741447449e-02
3.763370960950851440e-02
2.550120837986469269e-02
2.786313183605670929e-02
2.764202840626239777e-02
2.241183072328567505e-02
-7.702824473381042480e-02
-6.221755966544151306e-02
8.740992844104766846e-02
-1.014995351433753967e-01
4.321392625570297241e-02
5.337544530630111694e-02
8.629015833139419556e-02
-2.358093298971652985e-02
6.316578388214111328e-02
-2.352476306259632111e-02
-2.586545888334512711e-03
1.094869244843721390e-02
5.221735220402479172e-03
1.849031075835227966e-02
-6.006521359086036682e-02
-1.357199531048536301e-02
-7.697490602731704712e-02
2.976971492171287537e-02
-3.203020617365837097e-02
-1.438021063804626465e-01
-8.786913752555847168e-02
-7.843727618455886841e-02
7.428253442049026489e-02
-8.492730557918548584e-02
4.046557843685150146e-02
2.696519158780574799e-02
-1.388438686262816191e-04
-1.962859183549880981e-02
1.134221442043781281e-02
-1.653307490050792694e-02
-1.198408845812082291e-02
7.663632184267044067e-02
-8.613049238920211792e-02
-8.772707730531692505e-02
-9.799630381166934967e-03
-5.863732844591140747e-02
-1.229365170001983643e-02
-1.512302085757255554e-02
1.348071917891502380e-02
-9.197370707988739014e-02
7.205758988857269287e-02
6.615555286407470703e-02
7.279024273157119751e-02
-5.529464036226272583e-02
-1.095830276608467102e-01
